nep4 3 Cs Pb I 
cutoff 6 5 24 16
n_max 8 6
basis_size 12 8
l_max 4 2 0
ANN 50 0
  4.4605383e-03
  6.2419992e-04
  1.2657816e-02
  2.1360813e-02
  1.0933155e-03
 -2.5527542e-03
 -1.4632896e-03
  1.2192792e-02
 -3.5891610e-03
  1.7682397e-03
 -7.2810223e-04
 -4.3988195e-03
  1.4644491e-03
 -1.0199458e-02
  2.4011696e-03
 -7.6652076e-03
  9.6863986e-04
 -3.0986450e-03
  6.1092656e-03
  1.7084018e-03
 -3.6882677e-03
 -1.2457345e-03
 -7.2676842e-03
  3.1865838e-03
 -1.2258035e-02
  6.0771243e-03
  6.5475362e-03
  1.7654788e-02
  3.1235081e-03
  4.1758822e-04
 -5.2125081e-03
  5.5847680e-03
  5.8368528e-03
 -8.5526919e-03
 -3.0784078e-03
  4.2102840e-03
  2.5243807e-04
  8.1365099e-03
  5.9175882e-03
  9.3134958e-03
  1.8864218e-03
  7.7791797e-04
 -5.3657894e-03
 -2.9176427e-03
  1.6218854e-02
  5.0171949e-03
 -8.0735059e-03
 -8.9143333e-04
 -5.0102253e-03
  2.2364102e-02
 -1.4801999e-02
  1.3312479e-03
 -3.0605139e-02
 -3.9566727e-03
 -2.5821589e-03
 -3.9207344e-03
 -2.1618817e-04
 -6.7026615e-03
 -1.2526826e-02
 -3.8636602e-03
  6.0183681e-03
 -4.1519515e-03
  7.9217609e-03
  1.5698543e-02
 -3.8015053e-03
  1.3572189e-02
  7.0380731e-05
 -3.7241748e-03
  3.1636639e-03
 -2.0498045e-02
 -3.1980712e-03
 -1.6271238e-03
 -4.3214901e-04
  1.0306345e-03
 -5.1265620e-03
  2.3997137e-03
 -3.5870762e-04
  3.8253872e-03
  3.9526485e-03
 -7.4328051e-04
  8.9798318e-03
  1.3437158e-02
 -5.6013614e-03
  3.2788794e-03
  1.6215957e-03
  1.1500804e-03
 -2.3649780e-03
 -4.3496015e-04
 -1.2317577e-03
 -1.6491647e-03
 -1.0807790e-02
 -8.0139777e-03
  9.4598788e-04
 -6.6102934e-03
 -2.6675402e-03
 -4.7769025e-03
 -1.8994467e-02
 -6.9075981e-03
  1.0467318e-02
  9.4690183e-03
 -4.2734211e-03
 -1.4748648e-03
  5.3670872e-03
  1.4809779e-03
 -7.9649501e-04
 -5.4851160e-03
 -1.1673783e-02
 -1.0101106e-02
 -1.4351506e-03
  3.1453013e-02
  1.4086987e-02
  2.0363301e-03
  4.3783747e-03
 -2.3821075e-03
 -7.9691276e-04
 -5.5632526e-03
  1.2578906e-02
 -8.9500722e-04
 -1.0649710e-02
 -1.6336652e-03
  2.7690178e-03
  4.2868391e-04
 -3.7223748e-03
  6.9502564e-03
 -1.9707317e-02
  8.7122507e-03
 -9.2521748e-03
  9.8696938e-03
  3.1126083e-03
  6.9997627e-03
  5.5201175e-03
 -9.7537665e-03
 -2.3349267e-03
 -5.9575643e-03
 -9.5939264e-03
 -7.4836001e-04
  5.0123055e-03
 -8.8972636e-03
  2.7374078e-03
 -3.7918740e-04
  8.3619431e-03
 -1.4502802e-02
  2.8542378e-03
  1.1291396e-02
  5.0090364e-04
  1.1022519e-02
  1.2219205e-03
 -1.0552552e-02
 -7.0487591e-03
  5.7474483e-04
 -7.3645607e-04
 -6.0803113e-03
  4.2653915e-05
  9.2076119e-03
  7.9583155e-04
  9.4088838e-03
  5.3620539e-03
  2.1365775e-02
 -1.8426961e-04
  7.4684685e-03
  1.1160851e-02
 -9.4282795e-03
  6.7808167e-03
 -6.3341525e-03
  2.1114420e-02
  4.2394566e-04
 -3.2187055e-04
 -1.7886795e-03
 -7.1428223e-03
 -1.1744794e-02
 -4.1893884e-04
  4.5066033e-04
  1.0470421e-02
 -2.7967108e-02
  6.1521120e-04
 -1.4887167e-02
 -9.7417226e-04
 -1.4402067e-03
  8.1008598e-03
 -3.2982123e-03
 -5.2943954e-04
  2.3843272e-02
 -8.9558057e-04
 -9.2783961e-03
 -3.1587698e-03
 -3.1917610e-03
  3.6534003e-04
 -3.7701908e-04
 -5.1747593e-03
  2.1876732e-03
  4.1157864e-03
  5.5295241e-04
  1.6429089e-02
  2.0173570e-02
 -7.3410226e-03
 -4.1968417e-03
  2.1181051e-03
 -3.2810143e-03
  6.3363486e-04
  3.7560191e-03
  7.6523295e-04
 -1.4382572e-02
 -1.4413338e-03
 -1.4182417e-02
 -6.0552917e-03
  7.4727237e-03
 -1.2552884e-02
 -1.1004383e-03
 -1.0330637e-02
 -6.4317923e-04
 -1.9826596e-03
  1.7495012e-04
  1.6462607e-02
  3.4340031e-03
  5.3766067e-03
 -2.6439964e-03
  1.3370400e-02
  6.7643393e-03
 -3.6008633e-03
 -3.0283958e-03
  1.4650468e-03
  2.0742493e-03
 -2.0639792e-02
  8.7102037e-03
 -7.6049836e-03
  3.1975226e-03
  8.5322763e-04
 -3.7750804e-03
  5.6203635e-04
  8.5977977e-03
  1.4225241e-04
  4.6781250e-03
  9.3517615e-04
  6.0507140e-05
  1.5307456e-03
 -1.1208648e-02
 -3.2864998e-03
 -1.2407122e-03
 -1.4940515e-03
  1.6937697e-03
 -1.0274468e-02
 -1.5650624e-02
 -5.5213398e-03
  1.2338675e-03
 -9.5727565e-03
  1.1319900e-02
 -1.3605824e-03
 -1.8732633e-03
 -4.7645625e-03
 -6.0602077e-05
  4.1734446e-03
 -3.2353753e-03
  1.9298561e-02
 -3.9275489e-03
 -2.1094549e-02
  5.5666710e-03
  1.6443966e-03
  6.0339221e-03
 -6.8075345e-03
  9.9065993e-04
 -1.7894104e-02
  1.8451507e-03
  5.3175064e-03
  4.0786439e-03
  1.5138508e-02
  1.4620236e-03
  4.9585998e-03
  1.1795124e-03
  4.6228059e-03
  2.7688767e-03
 -5.0377692e-03
 -7.9189204e-03
  1.6084665e-03
 -1.5690575e-04
 -1.7775638e-03
  2.4635319e-02
  2.3111045e-02
  8.1516523e-03
 -2.5855098e-03
 -7.8459714e-05
 -4.7897734e-03
 -6.6366666e-03
 -3.9181064e-04
  2.1710948e-03
  3.5088195e-03
  1.2077667e-03
 -2.2990082e-03
 -1.5519644e-03
  1.9950388e-04
  1.9948634e-04
  9.5979916e-03
 -1.7498821e-03
  1.8888990e-03
  8.2041491e-03
 -1.7370336e-03
  5.0632362e-03
 -9.2741679e-03
  5.0320448e-03
  2.8249717e-03
 -6.0084616e-03
  2.9693607e-03
 -1.7211555e-03
 -4.5335121e-03
 -1.8050000e-02
 -4.9924045e-03
  6.6868966e-03
 -7.6068849e-03
  5.8362265e-03
  1.3616158e-02
 -2.3318960e-03
 -1.3323350e-02
  8.9108571e-03
  5.2997228e-03
  1.2688241e-02
 -2.2575262e-03
 -2.6020373e-03
 -2.3544184e-03
 -5.5676769e-03
  1.6143689e-03
 -2.7719180e-03
 -2.0111692e-03
 -1.8043499e-03
  5.8835545e-03
  1.9225070e-03
  1.9807298e-02
  8.9022337e-04
 -1.1007551e-03
  7.9373131e-03
 -1.4893603e-02
  1.8005422e-03
 -1.1695620e-03
  1.1102303e-03
  1.1665362e-03
  1.0231990e-02
  9.0237549e-03
 -2.3674625e-03
  2.8898406e-03
  1.3633328e-02
 -1.1744335e-03
 -1.7494841e-02
  9.7104383e-04
  7.3521729e-03
 -2.3258370e-03
  2.3343796e-03
 -2.3997582e-03
 -1.5694797e-03
  2.6702515e-03
  3.0080243e-03
  8.9203095e-04
  4.9651053e-04
 -6.8625235e-03
 -3.9796899e-03
 -4.8762201e-03
 -2.5434960e-03
 -5.8044712e-03
 -3.0931495e-03
  6.1902958e-03
 -7.0944340e-03
  3.7344343e-03
 -4.0756087e-03
 -3.4320205e-03
  1.8155979e-02
 -4.1909595e-03
 -4.0628468e-03
 -2.2221057e-04
 -1.5018160e-03
  6.8142763e-03
 -6.5855421e-03
  1.1249917e-02
  8.2617914e-03
 -2.7112011e-03
  3.7262831e-03
  3.5824552e-02
 -1.1405421e-02
 -2.8495153e-03
 -4.6763690e-03
  1.2828584e-03
 -1.9361927e-03
 -2.8618546e-03
 -6.7559333e-04
 -1.0095721e-03
 -2.9360510e-03
 -1.1391755e-02
  1.0933903e-02
 -6.0139806e-04
 -1.8221578e-03
 -1.1833542e-04
  2.6352761e-02
 -9.9409586e-03
  1.7101078e-03
 -4.3928749e-03
  1.3384873e-02
 -8.5572144e-03
 -1.9687428e-03
  1.2502193e-02
 -7.2600627e-03
 -2.7523311e-03
 -1.5614145e-02
  1.3054838e-02
  3.2218922e-02
 -3.5625314e-03
  1.1664261e-02
 -2.8044959e-03
  9.2083178e-03
 -2.1348065e-03
 -6.7464204e-04
  2.0931533e-04
 -1.3569063e-02
 -1.2790343e-04
 -6.2928153e-03
  7.5814798e-03
  6.5823214e-04
  1.5755462e-02
  1.0371251e-03
 -5.0374679e-03
 -5.9620752e-03
 -1.4328588e-03
 -1.5687229e-02
  3.3407651e-02
 -1.0250937e-02
 -2.4807996e-03
 -5.8978656e-03
  4.1736863e-03
 -3.1157953e-03
  2.3853255e-03
  1.6037334e-02
  8.1032608e-03
  1.5375553e-02
  1.4324097e-02
  7.8524189e-04
 -9.9663227e-04
  9.5608784e-03
 -1.0330005e-02
 -9.1493153e-04
  2.5530504e-02
 -4.0117064e-03
  1.2050600e-02
 -4.2591840e-03
  6.3142101e-03
  7.8678556e-04
  2.1114407e-02
 -2.8326712e-03
  5.7218364e-03
 -1.1535912e-03
  7.6216655e-03
  4.3074437e-04
 -3.1935130e-03
  4.6148440e-03
 -4.0149381e-03
  1.2973628e-04
 -6.8149664e-03
  4.7386624e-03
 -7.9545629e-04
 -6.6390238e-03
  9.3596922e-03
 -1.3676579e-02
  4.2209076e-03
  8.1839487e-03
  2.8439870e-03
  8.0852713e-03
  2.6997139e-03
  2.4616694e-02
  8.9284568e-04
 -5.7266685e-03
 -1.1189609e-02
  3.5856650e-04
  8.7504610e-03
  3.0814081e-03
  5.4876064e-04
  3.6063939e-04
 -3.6223731e-03
 -1.3102283e-03
 -2.8740006e-02
 -2.9760757e-03
 -1.2054809e-02
 -8.6526778e-03
  4.2122873e-03
 -1.2416352e-03
  7.0099812e-03
  1.1911156e-02
  2.9949963e-03
 -5.7358301e-04
 -1.6217387e-03
 -2.8206583e-03
  4.1421503e-05
  4.2442633e-03
  6.0177483e-03
 -2.8362561e-03
  6.2400708e-03
 -2.2950689e-03
  1.1401432e-02
 -9.3369558e-03
  5.1390575e-03
 -3.5418747e-03
  6.2218118e-03
 -1.8096451e-02
 -3.6244353e-03
  3.2697730e-03
  1.4615431e-03
 -7.1240463e-03
  4.1956257e-02
 -1.7745126e-03
 -5.9324694e-03
  1.0966492e-02
  8.9783163e-04
  6.7883157e-03
  7.6420247e-03
 -7.2765229e-03
  2.0862119e-03
 -1.5261150e-02
  1.0862391e-02
  4.7920966e-03
 -5.6654103e-03
  1.0801770e-02
  2.9441076e-03
 -2.7060108e-03
 -3.1469276e-03
  7.6189090e-04
  1.7108155e-02
  7.1801329e-03
  1.4857681e-02
  8.9528309e-03
 -5.9836516e-03
  4.9852482e-03
 -3.7661265e-03
 -2.0728409e-03
 -9.3431119e-03
 -2.6250563e-03
  1.5885886e-02
  1.3464040e-02
  2.9748073e-03
  6.0833776e-03
 -1.3327553e-02
 -9.2488630e-03
  2.7200677e-03
  8.3515877e-03
 -8.2590512e-04
 -1.4206890e-03
 -5.3546028e-03
 -8.9918710e-03
 -2.3292297e-02
  1.4811496e-03
  2.1677029e-03
 -3.4129065e-03
 -2.6756710e-05
 -3.1141466e-03
  1.2133392e-02
 -1.1574605e-02
 -5.4105246e-03
 -3.9054411e-03
 -2.2136562e-03
  3.0500379e-03
 -8.1064720e-03
 -1.1716399e-02
 -2.8173537e-03
  3.8282066e-03
 -1.9973530e-03
 -5.4864408e-03
 -2.1442785e-03
  4.1045778e-04
 -8.5716154e-03
  8.7490000e-05
  2.2332824e-03
  1.7058395e-03
  2.6113510e-02
 -9.6129896e-03
 -5.2387160e-03
 -2.7540739e-04
  1.0877743e-02
  4.1089794e-03
  2.1909389e-03
 -5.5696350e-04
 -5.4895920e-03
 -6.5490319e-03
  1.5760818e-02
 -1.5220185e-03
 -7.2750505e-03
 -5.2078906e-03
 -2.7492815e-03
  8.2837678e-03
 -1.7359395e-03
  5.3186519e-03
 -4.9544936e-03
  4.5665209e-03
  1.0197020e-02
 -1.5363349e-02
 -5.6713219e-03
 -2.8397958e-03
  2.0596506e-03
  4.0357616e-03
  3.0865814e-03
 -4.3589827e-03
  2.7338618e-03
 -4.4323280e-03
  2.3893226e-02
  1.7888889e-03
  8.5034315e-03
 -8.1622798e-04
  2.5196625e-03
 -1.3889009e-03
 -9.4665764e-03
  5.1989108e-03
  3.4567500e-03
  3.5210659e-03
  1.1771874e-02
 -8.6968690e-03
  9.4251783e-04
 -1.1456051e-03
  1.4927824e-02
  2.9480630e-03
 -4.0817139e-04
  3.4844987e-03
 -9.7145755e-03
  7.5319654e-04
  7.1975244e-03
  1.4911968e-03
  2.9714915e-04
  4.0663714e-03
 -1.9404197e-03
  6.7988988e-03
  3.4961186e-04
 -3.8085519e-03
 -1.9527493e-02
  7.2193220e-03
 -8.2773110e-03
  2.6691130e-03
 -1.5117506e-02
 -4.8863268e-03
  3.5753398e-04
  1.6397441e-02
  6.3427831e-03
  3.8376981e-03
  3.1471103e-03
 -1.8353814e-03
 -1.4026344e-03
  1.0448856e-03
  1.2522111e-02
 -5.7120793e-03
  2.2465205e-03
  1.6504662e-02
 -1.0220801e-02
 -5.4707692e-04
 -1.5199792e-03
 -4.0283357e-03
  6.4872722e-03
  3.8140710e-02
 -4.4255317e-03
  2.2254062e-03
 -2.1074577e-03
 -1.5101996e-02
  7.0490865e-03
  3.6368512e-03
 -1.0769390e-02
 -3.1265992e-04
 -3.4903276e-03
 -5.2500223e-03
  2.7894988e-03
 -1.2313699e-02
 -1.8499006e-02
 -5.6796684e-04
  7.4366243e-03
  1.2249921e-02
 -4.4108438e-03
  2.7913296e-01
  5.3895335e-03
  4.4662938e-03
  2.1099079e-02
 -1.3657632e-02
 -1.2988137e-03
  2.2757007e-03
 -3.0185478e-03
 -5.7639657e-03
 -1.8503657e-02
  3.0174116e-03
 -2.4463476e-03
 -5.8618276e-03
  1.7591072e-03
  2.0805623e-02
  6.3404848e-04
  5.4496032e-04
 -1.0648165e-02
  6.0671376e-04
 -8.9782663e-03
  5.6748698e-03
 -5.7943561e-03
 -1.1434381e-02
  1.4076438e-03
 -2.3657433e-03
 -6.0371426e-03
  2.7968783e-03
 -2.5995817e-02
  4.7174562e-03
 -6.7513916e-03
 -5.2517271e-03
 -1.4681558e-03
 -6.2736194e-03
 -8.5087065e-03
  5.2530612e-03
 -1.3707216e-03
 -9.4953002e-03
  2.6699837e-04
 -8.7972488e-03
 -2.3048811e-03
 -9.3906177e-03
  1.4435341e-02
  2.2826182e-02
  8.8453582e-03
  6.8191849e-03
 -3.4496246e-03
 -4.5426283e-03
  2.7254140e-03
  7.2772964e-03
 -3.8713661e-03
 -4.9647470e-03
  3.2618868e-03
 -5.4644803e-03
  5.8969455e-03
 -1.3612746e-02
 -2.0231017e-05
  8.4524611e-03
  4.6597780e-03
 -6.7214929e-03
  1.4923181e-03
  3.4661614e-03
  5.7033417e-03
 -4.5723272e-03
  3.1031715e-03
 -1.7347436e-02
  4.2043836e-03
 -8.7237614e-04
 -1.4767417e-03
 -2.8632942e-04
 -6.2651923e-03
 -9.6044317e-03
 -5.1687672e-03
  2.8155481e-02
 -1.3022890e-02
 -3.5116430e-02
 -1.2977842e-03
 -2.6680049e-03
 -8.1108240e-03
  1.0653931e-02
 -3.2381641e-03
 -7.6723658e-03
 -3.8555257e-03
 -4.6341387e-03
  8.8539952e-03
  5.4950165e-03
 -5.1711877e-03
  5.9054312e-03
  8.8494868e-05
 -1.1851729e-02
 -2.1532610e-02
 -7.2340090e-03
  2.2815228e-02
  4.3170438e-03
  8.0432482e-03
 -1.1837773e-02
  7.3589227e-04
 -6.4484047e-04
 -2.8484251e-04
 -8.4183743e-04
 -1.0515795e-02
 -6.2144984e-04
  7.2063664e-03
 -3.7347102e-03
  1.0206721e-02
  3.1855430e-05
 -1.7234314e-03
  7.6009957e-05
 -6.3791648e-03
 -1.9430418e-03
 -3.4805571e-03
  3.6702172e-03
  3.8208291e-03
  7.4972375e-03
  1.0960255e-02
  2.3014573e-02
  2.5227793e-02
 -6.2798783e-03
  4.3617599e-04
  2.4057559e-03
  6.6124747e-04
  7.1925106e-03
 -1.7182857e-03
 -5.0507644e-03
 -3.6126352e-03
  5.9888298e-03
  5.1284826e-04
 -6.1142556e-03
  1.8775831e-03
 -1.2375654e-02
  1.3731362e-03
  1.1885437e-02
  8.3757592e-03
  2.6135163e-03
  1.6296534e-03
 -6.5506645e-03
 -1.5652784e-03
 -6.6541857e-03
 -2.4979992e-03
 -7.6802477e-04
 -9.3619153e-03
 -1.5910487e-03
 -1.0409247e-02
  6.0389866e-03
 -3.6494404e-03
 -1.1604579e-02
 -1.4757160e-02
  6.0603296e-04
 -1.1608523e-02
 -6.6267797e-03
  7.8617446e-03
  2.8021031e-03
  7.3430063e-03
 -2.2012799e-03
  2.0750372e-03
  6.9147339e-03
 -1.0985008e-04
 -1.6140781e-03
  2.3053018e-03
 -4.6136049e-03
 -1.9362293e-03
 -9.9407916e-04
  1.0809689e-03
 -1.0200511e-02
  3.2767978e-02
  2.7350700e-03
 -4.4565704e-03
 -2.3040278e-03
  1.8935186e-03
  2.5373008e-03
  9.3607244e-04
  1.5203022e-02
  2.2529745e-02
 -4.5611784e-03
  3.8338678e-03
 -1.4819808e-03
 -2.2241365e-02
 -6.6990517e-03
  2.0291464e-02
 -2.0870289e-03
  6.0394662e-03
 -6.6856486e-03
 -5.1214686e-03
 -2.6075388e-03
 -4.5209698e-04
 -1.9166475e-02
 -3.8666066e-03
 -1.8468035e-02
 -4.7334284e-03
 -1.3648174e-02
 -1.0748596e-02
 -2.8742960e-04
 -3.4914708e-03
 -3.9521861e-03
  2.7157015e-03
 -9.0309074e-03
  1.0918712e-02
 -2.3859460e-03
  7.6382840e-03
 -8.2810689e-03
  6.7532202e-03
  1.0579046e-02
 -9.4050495e-03
 -6.0594617e-03
  9.0850046e-04
 -2.1323413e-03
  4.1496879e-03
  1.5158746e-02
 -8.5236371e-04
 -1.6331204e-03
 -6.6778190e-03
  3.1763914e-03
 -4.6927067e-03
  8.5485345e-03
  2.3453045e-03
  1.5402240e-03
  7.8743184e-04
  6.1186193e-03
  4.3423052e-04
 -1.1202236e-02
 -7.1534258e-03
  8.7468429e-03
 -1.3852569e-03
 -1.3684068e-02
 -1.9917492e-02
  2.0896439e-03
  1.8443899e-02
 -8.1377076e-03
 -9.5702084e-03
  1.4479099e-03
 -2.2901591e-05
  2.6061485e-04
 -1.0631775e-02
  6.6905273e-03
 -2.1068179e-03
 -5.1096096e-03
 -2.9761263e-04
 -6.3242512e-03
  5.7104831e-03
  1.4123063e-02
  4.8429341e-04
 -7.6146079e-03
  5.1068803e-03
 -3.3412527e-03
 -1.3468630e-03
 -1.9490176e-03
 -5.5415598e-03
 -6.2512062e-03
  1.3415006e-03
  5.2766711e-03
 -1.3667913e-02
 -5.0853724e-03
 -1.1510111e-03
 -1.0677712e-02
  1.0260009e-02
  8.7872222e-03
  2.0243619e-03
 -9.4854422e-03
 -1.3926432e-02
  1.4746111e-02
 -7.9244683e-03
 -3.9224271e-03
 -9.1748545e-03
  7.2224564e-03
 -1.0932116e-03
 -1.2034218e-02
 -1.9629204e-03
 -4.8326147e-03
  4.8203305e-03
  1.3074176e-02
  1.4583337e-02
 -2.6509278e-03
  8.0567487e-03
 -7.1468079e-05
 -1.9158147e-02
  1.8995919e-03
  1.7920692e-03
 -2.3341291e-02
  6.2625287e-03
 -2.6154896e-02
 -4.7302232e-03
 -9.6319633e-04
  6.9875270e-03
 -1.6318807e-02
  2.6035288e-03
  1.3204320e-02
  2.1891041e-02
  3.8792118e-03
 -1.4632724e-02
  2.2219978e-03
 -1.2689540e-03
 -2.2753300e-03
 -9.4420800e-04
  6.9279107e-03
 -4.3813339e-03
  8.7216031e-03
 -3.2036661e-03
 -2.8753974e-03
  3.6612547e-03
 -7.6758848e-03
  1.2401123e-02
  2.4132261e-03
  1.3818360e-04
  7.1164644e-03
  1.4404566e-02
 -1.4954378e-04
 -6.0172644e-03
  5.0181691e-03
  3.6927541e-03
 -6.0914055e-04
 -2.7069545e-03
 -6.4379778e-03
 -2.2438806e-03
  4.6335557e-03
 -1.2850065e-02
  7.8853813e-04
 -2.8380328e-03
 -2.8548267e-04
  2.4568450e-03
  7.1903490e-03
  1.1478893e-02
  6.7022368e-03
 -3.4212898e-03
 -4.2041889e-03
 -1.6102637e-03
 -3.5059170e-03
 -1.3852443e-02
 -1.2252007e-02
  8.7585645e-03
 -5.0395932e-03
 -3.6445339e-03
 -6.7617046e-04
 -3.1711916e-03
  2.5686868e-02
  1.5201949e-02
  1.8476290e-03
  5.3595272e-03
 -9.3461676e-03
 -6.0238387e-03
 -1.1260707e-02
  2.6350550e-03
 -3.1247868e-03
 -1.3426455e-02
 -1.7182749e-03
  2.7828962e-03
  5.5341092e-03
  3.7114811e-03
 -2.3911411e-03
  1.2985795e-03
 -4.6987310e-03
  9.1640465e-03
  5.9488975e-04
  1.0552872e-02
 -2.7367169e-02
  1.6576957e-03
 -7.7458383e-03
  2.4945352e-03
 -8.2640871e-03
 -3.1911475e-03
  4.7239629e-03
  8.4745616e-04
  6.5872520e-03
 -1.1160857e-02
 -6.7482064e-03
 -1.2057392e-03
  8.5616028e-03
  1.0174847e-03
 -3.2159712e-03
 -1.9969405e-03
 -3.6572770e-03
 -2.8824208e-03
  9.5518492e-03
  1.2899259e-02
 -8.3284276e-03
 -6.0930443e-03
 -3.3233151e-02
  5.2647749e-03
  5.8026845e-03
 -1.6927810e-03
 -3.1033866e-03
 -7.0517450e-03
 -1.3893661e-02
 -3.5813526e-04
  1.8842867e-02
 -3.3490618e-03
 -4.0771323e-03
  9.8349312e-03
  4.1598883e-03
 -1.2536101e-03
  1.5816504e-02
  5.3846869e-03
  3.0554722e-03
 -1.0703285e-03
  2.9017484e-02
  5.7025538e-03
  8.5536862e-04
  2.0525355e-03
 -1.8384906e+00
  9.7752754e-03
  4.2429479e-04
 -9.1776595e-04
 -1.9385691e+00
  6.7098741e-03
  2.2356269e-05
  6.7851824e-01
 -1.1927858e-03
 -1.0956871e-02
  2.7517513e-03
  2.7948625e-03
 -9.1290194e-01
  1.2381724e-02
 -1.0661585e-02
 -4.6921265e-03
 -1.9926488e-02
  1.8967690e-03
  1.0166356e-02
 -7.4372774e-01
  1.0423712e-02
  1.7386866e-01
 -1.3910984e-03
 -4.7754380e-03
 -1.5371882e-02
  9.5779970e-03
 -4.2468998e-01
 -9.6725784e-03
 -1.4003769e-01
  4.5176051e-03
 -1.2298474e-02
 -5.9359189e-04
 -9.0295430e-03
 -3.6927465e-02
  2.0303815e-03
 -3.5382669e-02
 -4.0619560e-03
 -3.1932235e-02
  9.8759970e-03
 -1.5871819e-03
 -1.6988952e-02
  1.1425441e-02
  3.3635093e-04
  4.3799779e-03
 -1.4602343e-02
  1.4641671e-03
 -2.0992296e-02
  1.5491241e-03
 -7.6215883e-04
  3.5911030e-03
 -5.0552571e-03
 -1.2784625e-02
  2.8826583e-03
  1.1211756e-03
 -4.9547111e-03
  2.8661885e-03
 -7.1905707e-03
  1.5692303e-02
  4.2230808e-03
 -1.2694287e-02
  6.0372595e-03
 -7.6320692e-04
  1.7527185e-03
  4.2759214e-04
 -1.7032826e-02
 -1.8802116e-03
  1.3642310e-02
  2.7409956e-04
 -8.6913118e-03
 -1.4161310e-03
  1.1758476e-02
 -1.2460476e-02
 -1.3811518e-02
  4.5547830e-03
  1.1169523e-03
 -2.9278826e-03
 -4.6336962e-04
 -1.2862994e-03
  1.6089704e-02
  2.2558391e-02
 -4.3039508e-03
 -4.9939570e-03
 -9.5259380e-03
 -4.9727429e-03
 -1.3507616e-03
 -1.1853677e-02
 -1.7398193e-02
 -1.1794800e-03
  1.6916653e-03
  6.3827418e-04
  3.0825438e-02
  9.9486439e-03
  5.1839738e-03
 -3.5662486e-03
  2.8430794e-03
 -2.4659928e-02
  1.2717646e-02
  1.9055174e-04
  4.3155127e-03
  2.3465245e-03
 -6.2995427e-03
 -4.3591326e-03
  2.3214741e-02
 -3.5848503e-03
  6.4447364e-03
 -5.6058190e-05
  3.0403696e-03
 -1.5175647e-02
  3.5761092e-03
  5.7891030e-03
  7.4484204e-03
  2.3418625e-03
  7.0611457e-03
  2.5942032e-03
  2.4761667e-03
 -2.2142025e-04
  4.8478623e-03
  1.6513226e-03
  2.0265188e-03
  6.2616151e-03
 -6.2387534e-03
 -4.2770505e-03
  1.9541981e-03
  3.8457243e-04
  1.5354996e-02
  7.9181725e-03
 -1.7013164e-03
  1.7855842e-04
 -1.0016127e-02
  2.7084099e-03
 -7.2470396e-03
  5.7674563e-03
  9.1670537e-03
  1.0716457e-02
  1.4657559e-02
  5.6733210e-03
 -1.3541535e-03
 -7.0995069e-03
 -1.1581019e-02
 -3.2012800e-03
  5.6161787e-03
  9.8217232e-03
  1.4794119e-05
 -2.8293647e-03
 -1.1558931e-02
  6.1791572e-03
 -1.5806902e-03
  2.1829072e-03
  1.8762395e-02
 -5.2752728e-03
  6.8560303e-03
  2.7835090e-03
 -5.1993378e-03
 -1.3417599e-03
 -1.6281928e-03
 -1.9164698e-03
  5.7028355e-03
  3.3242863e-02
 -6.1019300e-03
  1.6526198e-02
  1.6116399e-03
  2.2895341e-03
  4.9977857e-03
  6.3185873e-03
 -7.1899062e-03
 -3.7533538e-03
  1.1421522e-02
  5.3029973e-03
  9.2146806e-03
  5.3461068e-03
  1.1111554e-03
 -5.3663692e-03
 -4.6995007e-03
 -2.1639776e-03
  3.2206147e-03
  3.3694941e-03
  3.0003455e-03
  9.2332345e-03
  3.5906179e-04
 -2.9694059e-04
 -1.3518741e-02
  8.6866198e-03
 -5.3448509e-03
  1.3116459e-02
  1.4140642e-02
  2.1370435e-03
 -9.7920997e-03
  1.2369822e-03
  8.0760270e-03
 -2.8673094e-03
  4.6969787e-03
  8.6257432e-04
  3.4655302e-03
  6.6589122e-04
 -8.8756084e-03
 -1.0193440e-02
  3.8645752e-03
 -6.3088164e-04
 -1.1031452e-02
 -1.9545949e-03
  3.0518819e-03
  2.5455195e-03
  4.3928293e-03
  1.9546557e-02
  8.2007865e-04
 -1.0243407e-02
 -6.7168480e-04
  7.0403551e-04
  1.4842889e-02
  1.1279549e-02
 -5.7054907e-03
 -1.8370114e-05
 -1.9448533e-03
  5.6572556e-03
 -5.8877841e-03
 -1.0626428e-03
  2.7582406e-03
 -1.4213248e-03
 -3.1779343e-03
 -2.7664619e-02
  2.3772541e-02
  1.4652578e-02
  4.2006150e-03
 -5.2115606e-04
  5.0254434e-04
  2.7843830e-03
  2.7280945e-02
  1.5244201e-04
 -3.6286116e-03
 -3.8953274e-03
  1.4037851e-02
 -9.2436979e-03
 -7.2027702e-05
 -9.6038282e-03
 -8.0547491e-03
  3.4582803e-03
  2.0382663e-02
 -7.5307041e-03
 -1.3553301e-02
  6.4327806e-04
 -2.6995034e-03
 -2.1036253e-03
 -1.8025596e-03
  3.4385324e-03
  8.4052114e-03
  2.4086472e-02
  1.9074557e-03
 -5.5124210e-03
 -5.9260852e-03
 -8.2943235e-03
  7.3006339e-03
  5.5591408e-03
 -8.5768076e-03
  9.2468783e-03
 -5.5373795e-03
  7.0286239e-03
  2.8833554e-03
 -4.1849692e-03
  1.1583772e-03
  2.0397598e-02
 -3.6260465e-03
 -3.9166943e-03
  2.1633585e-03
 -1.6897094e-03
 -1.1646948e-03
 -1.0326515e-02
 -4.3427092e-03
  8.2314732e-03
  2.6973488e-03
  1.1081619e-03
  5.2829632e-03
 -7.4104406e-03
 -5.8839731e-03
 -9.2384417e-04
  8.6464063e-04
  1.7712750e-03
 -1.2622750e-02
 -1.1228796e-03
 -2.4502142e-04
  3.6913734e-03
 -1.0173725e-03
 -3.4107359e-03
  4.1880030e-03
 -7.2842827e-03
 -5.9564775e-03
  3.9526555e-03
 -2.5106349e-03
  1.0792974e-02
  2.3417140e-03
 -9.9848248e-03
 -1.1309893e-02
  4.0258975e-03
 -7.6761190e-03
 -2.9160436e-03
 -1.1354235e-02
 -1.8487914e-02
 -4.8283981e-03
 -6.3688285e-03
 -2.2336333e-03
  4.2998870e-03
 -7.4097174e-03
 -2.2880509e-03
 -1.1906414e-02
 -2.0417252e-03
  1.8367259e-03
 -2.5449258e-03
  1.4109520e-03
  1.6285097e-02
  1.8289220e-03
 -1.6848585e-02
 -6.9438993e-06
 -1.6012818e-03
  2.5087618e-04
  1.3462034e-03
 -6.0992404e-03
 -9.7602755e-03
 -2.5847063e-03
 -4.4209414e-04
  1.0199171e-03
  1.0761103e-02
  5.2543329e-03
 -2.1190355e-03
 -1.3525758e-02
  9.3946587e-03
  9.7586389e-04
 -1.3147509e-02
 -1.4212238e-02
 -7.3405327e-03
 -5.0913277e-03
 -9.9703565e-04
  1.2464407e-02
 -1.4405868e-03
 -6.4807027e-05
 -1.1536382e-04
 -3.2745970e-03
  1.5396788e-03
  9.2000002e-03
 -4.1473000e-03
  1.2375559e-03
 -5.2256933e-03
  2.4702952e-03
 -2.5740854e-04
 -5.1280167e-03
 -4.7388184e-03
  6.0059587e-03
  6.2736128e-03
  4.9208542e-03
  1.3999775e-02
 -2.6880126e-03
  1.5194520e-03
  4.0010568e-03
 -2.4387224e-03
 -1.9129923e-02
  1.2397352e-03
 -2.6500246e-03
 -6.5958393e-03
  7.0503554e-03
 -4.3426678e-03
 -1.4010875e-02
  1.9871432e-03
 -1.4436718e-02
  1.7012845e-03
  8.8849142e-03
 -2.1420652e-03
  1.3311527e-02
  4.3939664e-03
 -7.3365262e-03
 -2.2234176e-03
 -1.1283307e-03
  9.2087844e-03
  8.3693257e-03
  5.4253615e-03
  6.8465872e-03
 -5.8864006e-03
 -6.6237086e-03
 -9.0641789e-03
  7.3242513e-03
  7.8068296e-03
 -3.3955281e-03
  4.3462273e-03
 -1.2706544e-02
  1.4037070e-02
  4.7642654e-03
  1.4912788e-02
 -1.8914796e-03
 -2.5910305e-02
  1.7088145e-03
  6.5143998e-03
 -1.2467143e-02
 -3.4279004e-03
  1.2367692e-04
 -5.6718416e-03
 -5.0813300e-03
 -1.9211298e-02
 -1.1682022e-02
  4.8163584e-03
 -1.7991532e-03
  8.1406850e-03
 -6.5792175e-03
  2.0364057e-03
  2.1265289e-03
 -1.2605885e-02
  2.7303547e-03
 -7.1750707e-03
 -7.9627251e-03
  6.8110572e-03
  6.2229829e-03
 -2.5385418e-03
  8.2463538e-03
 -3.1572694e-03
 -1.3156222e-02
 -2.0022231e-05
 -4.6018150e-04
 -4.6520089e-03
  3.3269254e-03
 -4.8088133e-03
 -1.1270149e-02
 -1.9892857e-03
  2.4011040e-03
 -1.9498287e-02
 -1.8465219e-02
  9.0004085e-04
 -8.8035624e-04
 -7.6897506e-04
  6.3100923e-03
 -1.5178418e-03
  5.6088530e-03
 -3.1629514e-03
 -2.9799943e-03
  8.5334189e-04
  2.9838565e-03
 -1.0113147e-02
  1.0382247e-02
 -9.9537307e-03
 -2.5147989e-03
  1.8556820e-03
 -3.5386384e-04
 -4.1685030e-03
  3.0399027e-04
  5.5974526e-03
  6.5284548e-03
  3.4145811e-03
  1.5814690e-03
 -3.8295770e-03
 -4.6219989e-03
  1.9821083e-02
  3.1192623e-05
  1.6608909e-03
 -7.8375591e-03
 -6.5745348e-03
 -8.0921792e-04
  1.4943210e-02
 -6.7565436e-03
 -1.0956857e-02
  1.6557475e-03
  1.1471503e-03
  2.8289793e-04
  6.0133780e-03
 -7.6112075e-04
 -1.7761516e-03
  1.2464808e-02
  3.8995380e-03
 -7.5706681e-03
 -1.4702099e-02
 -1.6021602e-03
  7.7429889e-03
  1.4833530e-03
  1.0498265e-02
  1.5036886e-02
  1.3488842e-03
  1.9953793e-03
  4.5628287e-03
 -4.5329984e-03
  2.8085732e-03
 -6.1426940e-04
  3.1828370e-03
  1.6901961e-02
 -7.8468217e-04
  3.1548969e-03
 -5.2040294e-03
 -1.3312142e-02
 -1.7186614e-03
  7.4017001e-03
 -2.4953596e-03
  5.9080743e-03
 -1.0885349e-02
  1.5552687e-04
  1.0718552e-02
  9.3093272e-03
  8.8795013e-04
  5.8868532e-03
 -9.8462251e-04
 -1.7224922e-03
 -4.3068607e-03
  7.1518403e-03
 -1.3093988e-03
 -2.7827013e-04
  1.0105103e-03
 -5.8986731e-03
  5.9934300e-03
 -1.0252080e-03
 -4.7683143e-03
  2.1915637e-02
 -6.2334565e-03
 -5.3010704e-03
  2.3453808e-03
  4.1136327e-03
 -8.7233289e-04
 -2.8145944e-03
  1.0584738e-02
  1.9657973e-03
  2.3993095e-03
  1.2217897e-03
  1.1008903e-02
  7.0673431e-04
  5.0156715e-04
 -2.4452226e-04
 -7.5203751e-04
  1.1879818e-02
 -8.3406223e-03
 -8.6062038e-03
  3.2693103e-03
 -5.2407817e-03
  1.3151700e-03
 -7.9419033e-04
  2.0777674e-02
  1.2717952e-03
 -3.7817205e-03
  7.0609897e-03
 -5.4708393e-03
 -3.7570055e-05
 -5.9779449e-03
  1.0762615e-04
  2.5800787e-02
  3.0637141e-03
  1.0015894e-02
  4.2243879e-03
 -1.2754452e-02
  7.7608280e-04
 -4.4570076e-03
 -1.1683530e-02
 -2.0010045e-03
 -8.0590490e-03
 -1.0000739e-02
 -2.0188359e-03
 -9.3785077e-03
  1.6793748e-03
 -5.7329878e-04
  1.7801769e-03
 -9.6194996e-03
 -7.3029664e-03
  5.0905521e-04
 -1.6175514e-02
  2.5722000e-03
 -4.5182817e-03
  1.2035592e-02
  6.8940399e-03
 -1.5363289e-02
 -4.3831216e-03
 -8.0377776e-03
  6.2954538e-03
 -6.4722431e-04
 -7.3200621e-04
  9.4578648e-04
  3.6839079e-03
 -2.2066892e-03
  1.4518848e-02
  5.1972284e-03
 -1.1176600e-02
 -2.2651921e-03
 -6.1493325e-03
 -5.7315873e-03
 -5.5786211e-04
  4.9712616e-03
 -1.3071802e-02
  9.4549276e-04
 -4.6940413e-03
 -2.3245940e-03
 -6.0374415e-03
  6.4195069e-03
 -1.4095276e-04
  5.0176814e-04
  7.6259892e-03
  4.8514460e-03
 -8.8203587e-03
 -2.1976857e-03
  1.1942246e-03
 -1.0467714e-02
  3.0061125e-03
  5.4461341e-03
  3.2126063e-03
  2.6088819e-04
 -1.0767454e-02
  1.6778659e-03
  2.4896360e-03
  6.7481445e-04
 -1.3042402e-02
  3.5991722e-03
  5.0089955e-03
 -7.8854570e-04
  1.4191658e-03
 -4.9635624e-03
 -9.8233456e-03
 -2.0878077e-03
 -4.8079775e-03
 -8.6746132e-03
  1.5705274e-03
 -4.6410030e-03
  1.4146131e-02
 -4.6130875e-03
  1.1233411e-03
  4.7864257e-03
  4.5862906e-03
  1.5491862e-03
  3.7620044e-03
 -1.0938918e-03
 -2.3621918e-01
 -1.5949238e-03
  5.6472438e-04
  3.9844941e-03
 -7.0464358e-02
  1.6018057e-03
 -5.2978089e-03
  1.7466724e-01
 -2.1249503e-02
 -7.6557482e-03
  8.3979610e-03
  7.6527437e-03
 -3.1455597e-01
 -1.3822660e-02
  6.0673553e-04
 -1.9981401e-02
  1.2408340e-02
 -5.3589670e-03
 -1.0747950e-02
 -2.1235661e-01
  1.0233537e-03
  1.2188943e-02
 -9.3250629e-03
 -9.6938089e-03
  9.9993832e-03
  8.6832456e-03
 -1.8436089e-01
  4.8849909e-03
 -1.0184299e-01
  1.4854845e-03
  1.3172786e-03
  2.6240427e-04
 -5.0382582e-03
  1.1875662e-03
 -1.2242336e-04
 -1.1894002e-02
 -7.1383673e-03
  2.4152789e-02
  6.8570860e-03
 -4.3196343e-03
 -1.1229384e-02
 -1.5824076e-03
 -1.8176442e-02
  3.3839997e-03
 -1.1802103e-02
  7.9402784e-03
 -9.7583269e-04
  2.0490671e-03
 -6.1702738e-03
  1.0685306e-03
  1.1902723e-02
  8.3273457e-04
 -1.7959353e-03
 -2.3984611e-02
  6.7739692e-03
  6.7408639e-03
  6.3385922e-03
  1.8139526e-03
 -1.0056648e-03
  5.4862001e-03
  4.7975699e-03
  3.6021313e-03
 -8.9401826e-03
  2.5780878e-03
  2.1618307e-02
 -3.2209873e-03
 -4.2123906e-03
  6.8553151e-03
  4.6195291e-04
 -5.2978797e-03
 -1.2262096e-03
 -1.3014454e-04
 -6.4541139e-03
  5.5660349e-03
 -7.5903279e-03
 -2.1813817e-03
  3.6064428e-04
  8.4723998e-03
  2.0626353e-03
 -8.0016413e-04
 -4.4759945e-04
  5.1608663e-03
 -1.6516879e-03
 -1.2621823e-02
  1.0574564e-03
 -5.2934103e-03
  9.3351008e-04
  1.1028154e-02
  3.4235169e-03
 -5.8912081e-03
 -5.8928239e-03
  1.1913083e-02
 -1.2937358e-02
 -3.1894094e-03
  3.7978028e-03
 -4.1219660e-05
  5.9373083e-04
  1.0170651e-03
  1.5622850e-02
 -9.2729144e-03
  6.5460526e-03
  1.0669287e-02
 -6.8635647e-03
 -1.8213913e-03
  2.0974874e-02
  4.2917332e-04
  5.2830571e-04
  1.2359851e-02
  6.0561821e-03
 -2.9346670e-03
  5.9655175e-04
 -1.5143667e-03
  1.2583720e-02
  1.0279332e-03
  3.2087595e-03
  1.2094437e-02
  8.2026273e-03
  2.5250646e-03
 -2.2120526e-02
 -1.3126939e-02
 -2.4742815e-03
 -6.2454271e-04
  4.3153942e-02
  5.1533054e-03
 -4.6008164e-03
  2.0359425e-04
  9.0148859e-04
  6.3795787e-03
  6.9268956e-03
 -1.0169340e-02
 -8.6708838e-04
  1.0456453e-02
  2.1954640e-03
 -1.1019865e-02
 -3.8699154e-03
 -8.4310072e-03
  1.3956339e-02
  1.1347649e-03
  1.4709566e-02
  4.4012547e-04
  1.5316295e-03
  4.3919669e-03
  9.8739453e-03
  2.6940252e-03
 -6.8586278e-03
 -9.1299396e-03
  1.2586378e-02
  1.6579125e-02
 -8.1920587e-03
 -4.9621370e-03
  1.5939386e-03
 -1.7337969e-03
  2.8857626e-03
  1.3349411e-03
 -1.4782747e-03
  1.1122162e-02
  9.4890915e-04
  1.3213807e-02
 -2.6436825e-03
  5.2623375e-04
 -9.9456795e-03
 -1.0460673e-02
 -7.9270476e-04
 -7.7721588e-03
  1.6281283e-03
 -3.7409686e-02
 -6.6596973e-03
 -4.9450137e-03
 -6.7939417e-04
  9.4548147e-03
 -6.2445499e-04
 -1.2535787e-02
  1.3173918e-02
  1.3827729e-03
 -6.5587675e-03
  3.4031228e-03
 -1.8072854e-03
  3.9214985e-03
  2.2503415e-04
  3.3493892e-03
 -3.7696501e-03
  6.2152855e-03
 -5.5490918e-03
 -4.4246502e-03
 -4.6610553e-02
 -1.0872818e-02
 -3.3439544e-03
  2.4304727e-02
 -2.1358877e-03
  7.4567494e-04
  5.4804361e-03
 -8.4134908e-03
  9.0022767e-03
 -5.8989571e-03
 -1.2237598e-02
 -1.1397949e-02
 -1.2670991e-02
  1.0371587e-02
 -4.1164844e-03
 -4.4477708e-03
  4.2796149e-03
 -2.0070605e-03
 -5.3751925e-03
  2.5932223e-03
 -4.7278460e-03
  1.7320578e-03
 -3.2387509e-03
 -4.1900864e-03
  7.9523679e-03
 -2.2849902e-03
  8.0423761e-04
  1.9144217e-03
  2.1664256e-03
  8.0018556e-03
  6.5575691e-04
 -2.8908155e-03
  1.6525120e-02
  3.7216169e-03
 -1.0764888e-02
  2.9631048e-03
 -1.4900285e-03
 -2.2453483e-04
 -6.3733868e-03
  2.3533965e-02
 -1.1976281e-02
 -1.8348595e-02
  1.7149523e-03
 -6.4219362e-03
  6.0416944e-04
 -4.0825927e-03
  1.5635162e-03
  7.0489338e-04
  8.3476519e-03
  6.8856641e-03
 -4.3613031e-03
 -6.1865774e-04
  3.0676664e-03
 -7.9089617e-03
  1.4410426e-03
  1.3322368e-02
  7.0760129e-03
  9.8192357e-03
 -1.8870445e-03
  1.3869743e-02
 -9.9134375e-04
 -2.4120198e-03
 -3.5460680e-03
 -2.8767996e-03
  1.8341631e-02
  1.6772810e-03
  4.0950626e-03
 -9.1266615e-04
 -2.2422496e-02
 -2.9295867e-03
 -2.0444950e-03
 -1.6676038e-04
  4.4338116e-03
 -1.0819271e-02
  3.0633193e-03
  8.8983839e-03
 -4.4488348e-03
  1.3198361e-03
 -2.0033633e-03
 -2.6332412e-03
 -1.5536001e-03
 -3.1555020e-03
 -1.1590049e-03
  2.2530003e-02
 -1.6134158e-02
  1.5582503e-03
 -2.7792437e-03
  7.0401821e-03
 -7.6712016e-04
 -1.8404236e-02
 -2.5967699e-03
 -8.4459531e-04
 -6.0707391e-03
 -1.4829868e-03
 -2.3996464e-03
 -9.5503936e-03
 -4.0559988e-03
 -5.7880930e-03
 -3.2833926e-03
  4.9478584e-03
  3.8127885e-03
 -6.9576995e-03
 -3.3562810e-03
 -1.4604176e-03
  4.4348794e-03
 -6.1201295e-05
 -7.9724304e-03
  8.1736781e-03
 -4.1605481e-03
  3.7670431e-03
 -4.7850609e-03
 -2.6539529e-02
  1.8537584e-03
  3.1814801e-03
 -1.6725379e-03
  7.2331466e-03
 -1.8500977e-03
 -3.4579113e-03
  1.6243372e-03
 -2.2295245e-03
  1.9062521e-02
 -2.5341010e-02
 -2.5987283e-03
  4.1178975e-04
 -3.1181471e-04
  1.6408501e-02
 -3.9527137e-03
  1.8142309e-03
  5.2873548e-03
 -1.8354272e-03
 -7.0697027e-03
  5.2932776e-03
  1.0742761e-02
  8.3471537e-03
 -1.6133359e-03
  4.9990127e-03
  3.8202326e-03
  5.1556458e-03
  7.4035372e-04
  1.0264425e-02
  1.2751847e-02
 -3.7774674e-03
 -7.0343050e-03
 -2.9778641e-02
 -1.0342520e-02
  4.4695875e-03
  4.2873151e-03
  2.1991562e-03
 -2.6661272e-03
  3.6050980e-03
  3.2327936e-03
  4.0678289e-03
 -6.7378278e-03
  3.3501891e-04
 -1.2841476e-03
  5.5869310e-03
 -7.5580026e-03
 -1.3578157e-03
 -5.2992217e-03
 -9.9444459e-04
  1.5292668e-02
  1.9223634e-03
  1.9979072e-03
  3.9010216e-04
 -5.2360855e-03
 -9.3137641e-03
 -2.1094759e-04
 -1.1208110e-02
 -1.3943570e-02
  6.9819940e-03
 -5.0492156e-03
  7.9333279e-03
  7.5813732e-04
  1.5890514e-02
  1.6763390e-03
 -9.4664479e-03
  1.1633116e-02
  5.8970400e-03
 -3.8430640e-03
  7.1949246e-03
  4.1468395e-03
  4.2645070e-03
 -4.0309536e-03
 -9.9976640e-03
  2.7952914e-03
 -9.6805632e-04
  4.5477287e-03
  9.5157936e-04
  1.7311530e-04
  2.0818482e-03
  1.8259803e-02
  1.4872862e-02
 -1.7138012e-02
  4.9770153e-03
  1.1966293e-03
  1.6270412e-02
 -1.6108960e-02
 -2.4017281e-04
 -7.6897547e-04
  8.6782395e-04
  1.0646238e-02
  3.5844841e-03
 -9.6900389e-03
 -6.1288327e-03
 -2.0509141e-03
 -6.3710073e-03
 -9.0288147e-03
 -5.0459262e-03
 -2.0522261e-03
 -1.9980550e-03
 -2.6348834e-03
  1.4318696e-02
 -1.3355116e-02
 -1.4332799e-03
 -4.1712644e-03
 -3.0521643e-03
 -8.2870323e-04
 -4.7664500e-05
  2.4419553e-03
  1.5184470e-02
  3.2938715e-02
 -5.2992445e-03
  1.2963113e-02
 -2.6115475e-03
 -5.5643794e-04
  1.2960728e-02
 -1.6136805e-02
  7.6877177e-03
  1.3303329e-03
 -3.8763774e-03
 -1.1557662e-02
  1.1514106e-02
  7.1963235e-03
 -8.6729572e-04
  2.6731596e-03
  4.3761716e-03
  8.0233775e-03
  1.3171054e-03
  6.5271268e-03
 -1.0325350e-02
 -3.4177785e-03
 -1.3228850e-02
  1.1147696e-03
  2.3202140e-02
  1.4617572e-04
  3.1596457e-03
  1.0948452e-02
 -2.2798148e-03
  2.3041742e-02
  7.5030839e-03
 -2.6326042e-03
 -3.2683387e-03
  3.5792934e-03
 -7.9588331e-03
 -7.5454484e-03
  4.1024396e-03
 -3.6144648e-03
  5.7654814e-03
 -9.7552463e-03
 -3.0072385e-02
 -6.5234900e-03
  2.8612656e-03
  4.0935171e-03
 -6.8881316e-03
  1.8047218e-04
  2.6699451e-03
 -3.7059286e-03
  1.0656322e-04
 -1.1676206e-02
  6.1681252e-03
  7.4011069e-03
 -2.1404161e-03
  6.5702000e-03
 -2.1113257e-04
  8.4326891e-03
  5.1075597e-03
 -8.1148827e-03
  1.3349526e-02
  4.5795236e-03
  2.5112357e-04
 -1.1839895e-03
 -8.7997278e-06
 -1.9808499e-02
  8.2012936e-03
 -2.6641121e-02
 -4.8186667e-03
 -8.4472625e-03
 -1.3395901e-02
  1.0444992e-02
  5.4960954e-04
 -3.7953085e-03
 -1.5048517e-03
 -8.4571737e-05
 -4.4898023e-03
 -8.7159984e-03
 -3.8321659e-03
  4.0634824e-03
 -3.8431708e-03
  3.1947847e-03
 -3.5275349e-03
 -4.3127076e-03
 -4.0088366e-03
  8.6189993e-03
  1.8773241e-03
  1.5504012e-03
  1.9533201e-03
  3.0140956e-03
  8.9940825e-04
  4.2953356e-03
 -7.1233552e-04
  2.5025266e-03
  7.0723873e-03
 -1.8592994e-03
  6.0142437e-03
  1.7992185e-02
 -2.2263802e-03
  2.0893440e-02
  2.8262369e-03
  2.3517529e-02
  5.8463361e-04
 -3.1700884e-03
 -1.1619754e-03
  4.9531679e-03
  6.4981991e-04
  1.9567717e-02
  3.8729078e-04
  9.1392053e-03
 -3.1236743e-03
  6.5313494e-03
  1.4528858e-02
  9.3075901e-04
  2.3138400e-03
 -2.3504854e-03
 -2.1928089e-02
  3.0198533e-03
  6.6223707e-05
 -3.3816649e-03
  8.1720185e-03
 -4.3043848e-03
 -4.4742273e-04
 -1.8275833e-03
 -7.4091670e-03
 -1.3751571e-02
 -1.9381784e-02
  1.5696345e-02
 -2.4078786e-03
 -1.9941286e-03
  5.8787726e-03
 -3.0486341e-05
  5.7240115e-03
  3.3661611e-03
 -9.9579920e-04
 -8.1544556e-03
  2.7200675e-03
 -1.1463104e-03
  4.4900443e-02
 -2.3885078e-03
 -5.4272627e-03
  3.9451086e-04
  1.3404409e-03
  8.4792376e-03
  1.1367893e-03
  1.8585434e-04
 -2.8020660e-03
  1.1052412e-03
 -1.1026448e-02
 -1.0104427e-02
 -3.6560765e-03
  3.9994620e-02
 -8.3338877e-04
 -1.2784314e-02
 -9.1165671e-04
  1.0821193e-01
 -6.8496075e-03
 -1.1863064e-02
 -4.4519217e-03
 -1.8357517e-02
  9.5183570e-03
  8.3467448e-03
  3.7230896e-03
  6.3468087e-03
 -1.2155171e-04
 -2.4576969e-03
 -3.8401135e-03
  1.2079078e-03
  1.2779766e-03
 -4.4221715e-03
 -1.4910641e-02
  1.5033746e-02
  4.5444467e-03
  6.3811895e-03
 -2.7484065e-03
 -3.4131862e-03
  9.1738440e-04
  4.1646392e-05
  9.5062777e-03
  3.5453427e-03
 -8.6953194e-05
 -3.3323346e-03
 -8.1473412e-03
  1.7527249e-01
  1.3789214e-02
  2.7425068e-03
 -1.3103983e-02
  4.0898765e-03
 -8.7157518e-05
  1.3183798e-02
 -2.6656508e-03
  1.3578876e-02
 -9.7336754e-02
 -1.4933396e-02
  6.5449565e-03
  2.8768729e-03
  3.7696091e-03
  1.0749068e-02
 -1.8741509e+00
 -9.4330441e-03
  8.5260421e-03
 -2.0558957e-03
  8.5961558e-03
 -8.1086103e-03
  3.3209133e-03
 -1.3046584e-03
 -1.3383300e-02
 -3.7324114e-03
 -7.3070284e-03
 -1.5292228e-02
  4.6449671e-03
 -1.3022210e-02
 -8.7429374e-01
  3.4157359e-03
 -5.1493659e-03
 -2.4340814e-03
  1.2738372e-02
 -2.5057665e-04
  4.1171592e-03
 -1.1355095e-02
 -6.3594207e-03
 -1.1688915e-02
 -1.4701216e-02
 -5.4599682e-04
  3.0348063e-03
 -8.9868894e-03
  3.3977635e-03
  1.4635507e-03
  3.1185588e-03
 -3.3104295e-04
 -1.9001054e-02
 -2.6622883e-03
 -1.3119387e-02
 -6.8923617e-03
  3.7324782e-03
 -4.5122732e-05
  1.0455556e-02
  1.3620755e-02
  8.4421709e-03
  2.3974114e-04
 -2.8637484e-02
 -3.5420675e-03
  2.9735183e-03
 -1.2033300e-02
  2.3211741e-03
  1.1344054e-02
  1.4529211e-03
  1.2069870e-02
  4.0001385e-03
  7.3567457e-03
  6.9999006e-03
 -1.1642394e-02
 -9.8838629e-03
  1.4436736e-03
  2.3838861e-02
  1.1455514e-03
  6.9635035e-04
 -3.1005908e-05
  1.7683146e-03
 -1.6297183e-04
  5.6675291e-03
 -1.4521817e-03
  3.4242524e-03
  5.1055383e-03
 -1.5128566e-03
 -6.6593359e-03
 -1.2579205e-03
  7.6875475e-04
 -2.0559533e-02
  2.8157765e-03
 -7.2403369e-03
 -4.8170768e-04
 -1.3258391e-03
 -8.3478878e-04
 -1.1248698e-02
 -3.3919173e-01
 -8.4833940e-05
  3.6517854e-03
 -3.8032839e-04
  2.3205283e-03
 -5.1159211e-03
  6.5279310e-03
  1.0277667e-02
  1.4232957e-03
 -4.8820199e-03
 -5.6807743e-03
 -1.8058694e-04
  9.0942113e-03
 -1.7080656e-03
  1.7162131e-03
  9.0502799e-03
 -4.3511777e-03
 -8.5445233e-03
  9.3634246e-04
 -1.1220285e-02
  4.1989726e-03
  6.2222529e-04
  5.4931897e-03
  1.2198765e-02
  1.7050585e-02
  1.2509876e-02
  7.9218708e-03
 -8.3056130e-03
 -6.7081833e-03
  1.5554126e-02
  6.6284244e-03
 -5.0722691e-03
  6.3704448e-03
 -8.2172500e-03
 -1.1693633e-02
  1.2222482e-02
  5.2714352e-03
 -1.4582359e-03
  4.0152565e-02
  3.4707524e-02
  2.5502900e-02
  8.6376315e-04
  8.8673434e-04
 -3.1341971e-03
  4.3366402e-03
  6.5604231e-04
  4.6602031e-03
 -3.7253043e-03
 -1.2388214e-02
 -7.7722862e-02
  2.9064146e-01
 -1.6585914e-02
  1.2338863e-01
  1.5077133e-02
  1.3583474e-03
  1.1786073e-03
 -5.6851529e-02
  7.1903004e-04
 -5.8050919e-04
 -1.5564471e-01
 -1.3836724e-01
 -8.2933786e-04
 -1.9563464e-02
 -6.6528179e-02
  3.6616331e-01
 -1.6819183e-02
  2.4296880e-02
  5.7354454e-02
 -7.8986697e-03
 -4.3269973e-03
 -6.2577613e-03
  3.7615432e-04
 -5.0527109e-03
 -1.1214101e-02
  4.0081777e-03
  2.3867856e-03
 -2.9830551e-02
  4.1054445e-03
  4.1451803e-03
  9.9666268e-03
 -3.2372891e-03
  1.3524452e-02
 -4.9630417e-03
  3.3978228e-02
 -5.3777196e-04
  2.0597307e-02
 -5.4792356e-04
 -7.8749387e-03
  2.8898923e-03
  1.0734097e-02
  4.2373390e-04
  1.2999660e-02
 -1.6430401e-03
 -7.9467231e-03
  1.2663835e-06
  6.6046473e-03
 -5.1799058e-03
  1.8410848e-03
 -2.9071419e-02
 -3.0038611e-03
 -3.8011456e-04
 -6.3419752e-03
 -4.5818646e-04
  7.1842928e-04
  1.2363173e-02
  1.1358456e-02
 -4.8330572e-04
  5.0833714e-03
  1.4416718e-02
  3.8574152e-03
  2.8661902e-03
 -8.4943668e-04
 -6.6910693e-03
 -1.0806500e-02
  1.4570227e-03
  1.9220177e-02
  4.4500786e-03
 -1.8241640e-02
 -8.7136403e-03
  1.3140004e-02
 -9.0850033e-03
  1.5373342e-03
 -6.3696573e-03
 -7.2108083e-03
  3.4983039e-03
 -1.4420507e-02
 -4.0443288e-03
  1.1170973e-02
 -2.1845156e-03
  1.8255804e-02
  5.4590139e-03
  4.4921930e-03
 -2.2922526e-03
  2.4946982e-03
  1.3342755e-02
  1.4593520e-02
  2.1939087e-03
  2.5399113e-02
 -2.4027457e-03
 -2.8152736e-03
  8.3423546e-03
  7.6678148e-03
  7.7951397e-03
 -7.9019141e-04
 -1.4390742e-02
 -4.7038819e-04
  8.6209541e-03
  1.1703526e-03
  1.0130155e-03
  1.1341293e-02
 -6.5915170e-04
  2.5807051e-03
  6.8487052e-04
 -2.8588295e-03
 -7.9893954e-03
 -3.0199529e-03
  3.6856229e-03
  1.2045192e-03
 -1.5761580e-03
 -3.0558935e-05
  3.0488111e-03
  6.5993569e-03
 -5.0911419e-03
  4.2120642e-03
 -1.0949484e-04
 -2.7922073e-03
 -7.0585608e-03
 -1.0518821e-02
  3.8653731e-03
 -4.8114252e-03
  6.0177245e-03
  4.2311116e-03
  6.3466672e-03
 -2.7418125e-03
 -4.0542250e-03
  3.2528598e-04
  8.4146364e-03
  2.9174897e-05
  5.5785372e-04
  1.2212396e-02
 -1.0929604e-02
  1.7806383e-02
 -8.3759846e-03
 -1.1979744e-03
 -8.4567837e-02
 -9.5323817e-04
 -2.2953989e-02
 -2.8889838e-03
 -1.1143277e-02
  8.1324689e-03
 -5.2476986e-03
 -1.0283688e-02
 -8.0935387e-03
  7.2853225e-03
  2.1364205e-03
 -1.9214578e-03
 -5.2715330e-03
 -3.1006606e-03
 -3.1209290e-03
 -9.9280346e-03
 -9.2947185e-03
 -7.5590643e-03
 -4.6676793e-03
 -3.5236515e-03
  4.6244677e-04
  7.7779624e-03
 -1.1344885e-02
  1.3934213e-03
 -1.4642085e-02
  8.0639292e-03
 -1.8704271e-02
  1.0298532e-02
 -1.7818015e-02
  3.8089845e-03
 -2.3941291e-03
 -4.5570987e-04
  3.6988556e-03
  6.3477992e-03
 -3.4297397e-03
 -4.6897386e-03
  6.0188803e-03
  1.2638071e-02
 -3.0792293e-03
 -3.4248985e-03
  5.2509941e-03
  4.6697962e-03
 -5.9193689e-03
  1.0778395e-03
  8.7219123e-03
 -1.2230601e-02
 -6.3272500e-03
  3.1819686e-03
 -8.8093998e-03
  1.7093830e-02
  1.2527538e-03
 -1.5502340e-03
 -1.7773753e-02
 -1.6793929e-03
 -2.4533458e-03
  9.0619469e-06
  8.4490015e-04
  7.2445613e-03
 -7.1237651e-03
 -6.6632050e-04
 -7.9018958e-03
  3.6219362e-04
 -4.3823249e-05
 -1.4399724e-03
 -7.2151143e-03
 -3.7973637e-03
 -5.1756245e-03
 -1.9726849e-03
  7.9925975e-04
  2.1369163e-02
  1.5483383e-02
 -3.3667154e-04
 -8.1080347e-03
  7.9270229e-03
  8.8569644e-04
  6.6806111e-03
 -2.0791399e-03
 -1.1435578e-03
  1.8793857e-02
  7.4216607e-04
 -1.6424055e-03
  4.3622376e-03
  2.0537211e-02
  9.2726090e-04
 -1.0092087e-02
  1.4985491e-03
 -9.0324031e-03
  3.9424393e-03
 -1.0949314e-03
 -2.7332120e-03
  1.0794081e-02
  2.5116416e-02
  1.7045921e-03
  1.2638541e-02
 -1.2396015e-02
  1.0963477e-02
  1.3843193e-03
  1.2859062e-03
 -5.1115830e-03
 -3.6021799e-03
  3.4988124e-03
  1.1690363e-05
 -1.0417432e-02
  2.0657363e-03
  9.0090632e-03
 -3.3684941e-03
  6.4346548e-03
 -2.8367350e-02
  2.7055226e-03
 -4.6019540e-03
 -1.1031638e-03
  1.0682202e-02
  9.3864172e-04
 -1.4274503e-03
 -3.2407478e-03
  3.8945514e-03
  1.3302604e-03
 -6.3973563e-03
  1.3951496e-02
 -8.9648273e-03
 -2.7442565e-03
  1.9666383e-03
  3.5093536e-03
  2.0137463e-02
  2.8190869e-03
 -1.7415087e-03
  3.3686771e-05
  1.4794397e-02
 -6.4300061e-03
  3.3855489e-03
  1.9415166e-02
  6.6573941e-04
  1.7239409e-02
 -1.0971637e-02
  3.8312995e-04
  3.4585653e-03
  5.8029406e-03
 -1.2895362e-02
 -1.7863925e-04
  2.8748768e-03
  4.6762591e-03
  8.4552169e-03
 -4.0759430e-03
 -1.7391727e-03
  2.9669493e-03
  4.0297539e-04
 -6.2763430e-03
 -4.6170470e-03
 -4.7946586e-03
  1.6040476e-04
 -1.1540516e-03
 -5.7280902e-04
 -6.3563697e-03
  4.5556479e-04
  7.3064491e-03
 -2.2899872e-03
 -9.5903501e-03
 -4.0504122e-03
 -2.3694036e-03
  5.5534327e-03
  8.4023951e-03
  1.0382244e-02
 -7.7641238e-03
  1.7582478e-03
 -1.4796762e-03
 -6.1009810e-03
  2.3317549e-03
  1.5314119e-03
 -2.3989414e-03
  1.9206375e-02
  7.4264449e-03
  5.0253449e-03
  1.9715994e-03
 -5.7043345e-03
 -3.9445013e-03
  5.2292044e-03
 -5.6502349e-03
  1.3286190e-03
 -4.7618747e-04
 -1.3124513e-02
 -5.1766885e-03
 -2.6558994e-03
 -4.7475463e-03
  2.3322031e-02
  1.0158215e-03
 -6.7940913e-03
  1.8043320e-04
 -1.4361730e-02
  2.0582753e-03
  2.2927983e-02
 -4.7832299e-03
  2.0337966e-03
 -1.5017263e-02
 -1.2556478e-02
  1.7659640e-02
  1.3030266e-02
 -2.9215047e-03
 -4.1682953e-03
  2.2875899e-03
 -9.2296454e-04
  3.3487098e-03
 -1.0088122e-03
  5.2095141e-04
  4.3675764e-03
 -1.9934349e-02
  8.5534650e-04
 -1.1811927e-01
 -1.3153136e-01
  9.6763473e-04
 -2.1558301e-01
 -2.5786104e-04
  6.4711116e-04
 -2.4009978e-03
 -2.5978473e-01
 -1.3745734e-02
  7.5057303e-03
  7.9707712e-01
  4.0394893e-01
  6.7613316e-03
  1.6920594e-02
  8.8439975e-03
 -1.6828064e-02
 -4.0669427e-03
 -5.1039024e-03
  4.8732791e-02
  1.6208488e-01
  1.2275995e-02
  5.3006787e-02
  9.3524612e-02
  9.9237636e-03
  1.1697363e-02
  1.1474881e-03
  6.1942047e-01
 -2.7329053e-04
 -9.9065371e-02
 -2.7154854e-02
 -3.2747921e-03
  2.3507713e-01
 -8.6852098e-03
  8.1688035e-01
 -3.4974653e-03
  5.4646139e-03
 -2.2477053e-02
 -9.5497509e-03
  3.3458605e-02
 -9.7979847e-03
 -1.8520981e-01
  2.5098091e-03
 -3.8485939e-03
 -5.6088818e-03
 -7.1420730e-03
  1.2981478e-04
  7.4612554e-03
  3.0895497e-03
  2.3249486e-03
  7.7509261e-03
  3.7085417e-06
  1.5921658e-01
  4.3043107e-04
 -7.1329130e-05
  1.4433540e-01
  6.8078503e-02
 -2.2277790e-01
 -7.0815510e-03
 -2.1544065e-01
  1.3484105e-03
 -1.4568204e-03
 -7.9441862e-03
  4.9449041e-02
 -6.4530596e-02
 -4.2516156e-03
  8.4547468e-02
  5.9312284e-02
  1.2449193e-03
  4.2372748e-01
  1.5742998e-01
  3.1620064e-01
 -9.4859337e-04
 -1.1376184e-01
 -5.0035776e-03
 -4.8751302e-02
 -1.7226780e-03
 -2.2264871e-01
 -2.5630335e-03
 -1.3200240e-02
  3.9663552e-03
  5.3518540e-03
  7.7268854e-04
  1.3573785e-01
 -6.6165761e-03
 -6.9471620e-02
  4.8704967e-03
 -7.0627774e-03
  1.6105380e-03
 -8.9946492e-03
  4.9265809e-03
  1.5532640e-03
  5.5107074e-03
 -7.4534980e-03
  1.6835309e-04
 -4.8486039e-01
  1.8562169e-01
  6.0263975e-03
  9.6135301e-04
  3.4031942e-01
  2.5576219e-01
 -5.7650292e-01
  5.2296543e-03
 -1.9438022e-01
 -2.0605979e-02
 -1.9039665e-04
 -9.5576674e-02
  7.9282656e-02
 -1.1952052e-01
  9.1530561e-02
  1.5993913e-01
  9.9213451e-02
  1.7594583e-03
  2.4605569e-01
  8.5800236e-01
 -1.0057578e-01
 -2.0321347e-03
 -2.4175671e-01
 -1.3132252e-02
 -9.6794963e-03
  9.8189793e-04
 -4.1389588e-02
  8.2823940e-02
  1.6933877e-03
 -1.3359851e-02
 -4.6146302e-03
 -1.0992100e-02
  2.6104523e-02
 -6.9577416e-04
 -7.2626523e-03
 -4.7273847e-05
 -1.2898507e-02
  1.9613570e-03
  3.7255327e-03
  1.9887388e-04
  1.0738620e-02
  8.7691993e-03
  1.4221763e-02
  5.0145609e-04
  2.9465505e-03
 -1.3266391e-02
  5.8706598e-03
  2.7247607e-03
 -1.1468627e-03
  3.1135464e-03
  4.1205166e-03
  1.0711850e-04
  9.8811602e-04
 -6.7023239e-03
  6.5927743e-04
  1.6075463e-03
  5.6243548e-03
  1.8729782e-03
  1.0574330e-02
  9.4299531e-03
 -6.8907873e-03
  2.5711088e-03
 -7.0010251e-03
 -2.6006503e-03
 -1.8437063e-02
 -2.5600055e-02
  5.2616303e-04
  4.7511067e-03
 -2.0353359e-03
 -2.7794885e-03
 -3.5028022e-03
  5.5565196e-04
 -5.3641857e-03
 -2.0088371e-02
 -1.9771899e-03
  3.3639924e-04
 -9.9698931e-04
 -1.5167788e-02
 -9.4792955e-03
  7.2557796e-03
  3.5581305e-03
 -7.4207445e-04
  1.6572074e-03
 -7.5979321e-03
  1.2482845e-02
 -1.7608304e-03
 -1.9066097e-02
  2.4989801e-03
 -2.4196638e-03
  3.7991384e-03
  8.8042412e-03
  9.3541335e-04
 -7.5873346e-03
 -5.9254332e-03
  1.1156297e-03
 -8.0457134e-03
 -2.2650996e-02
 -6.6925830e-04
  1.8777941e-04
 -5.6156766e-04
 -1.6456924e-03
  9.8787276e-03
  1.6774695e-03
  1.4553993e-03
 -6.1256224e-03
  3.5653501e-03
  7.2205216e-03
  1.8468754e-03
 -7.8166800e-04
  6.5992223e-03
  1.0406569e-02
  4.2223692e-04
 -1.7872921e-03
  4.2638797e-03
 -4.6372134e-03
 -1.5622558e-02
  5.7367049e-03
  5.8963248e-03
  5.0936067e-03
 -3.2475286e-03
  2.3332474e-04
  3.0075365e-03
 -3.8054857e-02
  1.5680151e-02
  8.2965201e-04
  1.7125866e-03
  3.5796771e-03
  7.4045355e-03
 -7.9871695e-03
  2.5373970e-03
 -4.3453132e-03
  7.4053038e-04
 -2.2417360e-03
 -1.2163337e-02
 -2.5105573e-02
 -6.2628696e-03
  2.4864275e-02
 -6.1900681e-04
  1.5665387e-03
  8.6711859e-04
  9.8803630e-03
  2.3463143e-02
 -3.8012217e-03
 -9.5122885e-03
 -2.6948728e-02
 -1.2883851e-03
 -3.4803236e-03
  4.1479091e-03
 -6.9451722e-04
 -2.4975420e-03
  8.2062455e-03
 -1.7631138e-03
 -1.7236443e-02
  3.3311523e-03
  3.9002271e-03
 -3.2384144e-03
  5.8923019e-05
  1.8001379e-02
  2.5518127e-03
  4.3358533e-03
  5.6164633e-03
  3.2242606e-03
 -1.1045522e-03
  6.9652102e-03
 -6.7236153e-03
  1.1680670e-03
  8.5795589e-04
  1.8117865e-04
  1.0410647e-02
 -4.2642988e-03
  2.8504610e-05
  1.3168704e-02
  1.5312174e-03
  2.7280729e-04
  8.3856219e-03
  1.8768494e-03
  7.1123254e-04
 -2.5112173e-03
 -1.3924902e-02
  3.8433152e-03
 -7.6735200e-04
 -7.9408959e-03
  4.3689273e-03
 -4.7466331e-03
  1.6748392e-03
 -4.3118172e-03
  2.7242207e-03
 -3.5892456e-04
  1.6709360e-03
  2.8605273e-03
 -1.2371071e-03
  3.7802099e-03
  5.6980508e-03
 -4.8217336e-03
  2.6399884e-03
 -1.0693191e-02
 -1.0355625e-02
  1.5509260e-03
  6.1595528e-03
 -5.6409291e-03
  1.2187387e-02
 -2.5034018e-03
  6.2811649e-03
  7.5806971e-03
 -2.2123212e-03
 -2.0037610e-03
  1.2520187e-02
  6.4963740e-03
  1.7801620e-02
 -5.8952183e-03
 -3.0788931e-03
  7.8768618e-03
  1.7981471e-03
  9.8518189e-03
  5.6081759e-03
  6.5014544e-03
  1.2334283e-02
  5.2641416e-03
  2.7433734e-03
 -6.3668162e-04
  7.2405823e-03
 -1.5425781e-02
 -4.5317176e-04
 -4.3185335e-03
 -9.3113380e-03
 -8.2176179e-04
  1.5040086e-01
  9.9981399e-03
 -1.5920704e-03
  5.0369543e-03
 -5.6876307e-03
 -1.7802395e-02
  5.9113288e-03
  7.0217750e-03
  6.4384234e-03
 -3.2500306e-03
 -9.1973111e-02
 -2.8509044e-03
 -4.0270086e-02
  1.5043117e-02
 -1.1561914e-01
  2.8466347e-03
 -4.8487340e-03
 -7.0081968e-03
  1.3183188e-04
 -6.2428489e-03
  1.6229544e-02
  1.0599594e-03
  5.3534568e-03
 -5.5527263e-03
 -1.6619156e-04
 -6.2022831e-05
 -8.7864455e-03
  1.7976958e-02
 -7.6738035e-04
 -2.1990628e-03
 -2.6119880e-03
  1.3145376e-02
  1.2992871e-03
 -2.2342335e-02
  2.3534803e-02
  2.8957170e-03
  3.7676075e-03
  3.6442480e-03
  6.9429528e-04
 -2.4253540e-03
 -1.8680329e-04
  4.7078985e-03
 -1.9542528e-03
  2.3122700e-03
  2.7244294e-02
  1.3162621e-04
 -8.7232329e-03
  1.1995035e-03
 -3.9649085e-04
  3.7569287e-03
 -7.3949611e-03
 -1.1801654e-02
  2.8162946e-03
  3.7073637e-03
  3.6451519e-03
  3.3747626e-04
  2.0659226e-03
  1.1215243e-04
 -1.3139868e-02
  3.6126230e-04
  3.3716073e-03
  2.7027014e-03
 -1.0609977e-02
 -7.3594796e-03
  4.5306883e-03
 -2.9082827e-03
  1.5887914e-05
  8.4908698e-03
  2.0512389e-03
 -9.0796761e-03
 -5.0321831e-03
 -1.0522400e-02
 -2.3730693e-03
 -1.6463928e-02
  8.9078750e-03
  1.0812789e-02
  9.2360498e-03
  7.2855321e-03
  2.3707126e-03
 -3.8482721e-03
 -1.0016236e-02
 -1.5459506e-02
 -1.2134801e-03
  9.2061413e-03
 -6.6055031e-03
 -4.8282440e-03
 -5.0397213e-03
 -1.0344850e-04
  3.7170113e-03
  3.2147886e-03
  2.2032328e-03
 -3.1001687e-03
  2.5948756e-03
  3.0032644e-02
  5.7942066e-03
  1.6235546e-03
  8.1926183e-04
  1.1473553e-03
  1.9212623e-04
  4.8816102e-03
 -5.1813815e-03
  5.9779235e-05
  4.6699601e-03
 -1.6089074e-02
 -3.5015270e-03
  7.9082977e-03
 -1.2923467e-03
 -1.7812209e-02
 -1.8006910e-03
 -1.2530589e-03
 -4.7066226e-03
  1.5779465e-03
  3.5574574e-03
  6.9948202e-03
  2.9641357e-03
 -1.9933973e-02
 -5.5530127e-03
  1.2946448e-02
 -2.1099648e-03
  9.9948673e-03
  6.0708560e-03
 -8.2777757e-03
 -4.4659949e-03
  1.8307976e-03
  2.3030108e-03
 -8.1213220e-05
  6.5809572e-03
 -3.3823997e-02
  2.4885677e-03
 -7.4109840e-03
  2.5872604e-03
  8.2231900e-03
  2.1284764e-01
  5.0053501e-04
  1.2978545e-01
 -1.7217135e-03
  9.3132030e-04
  1.5965750e-03
 -5.1230606e-02
  2.0883015e-01
  3.4446195e-03
 -3.1341892e-03
 -1.7206922e-02
 -7.4063092e-03
  1.3183656e-02
  3.8338047e-02
  8.9584431e-03
 -1.8325564e-02
 -9.6528316e-03
 -3.6572071e-03
 -4.8650643e-03
 -9.9956361e-04
 -1.5290133e-02
 -2.0458248e-01
  1.5528981e-02
 -1.9449988e-02
  4.3108832e-04
  9.5921458e-04
  2.3154630e-03
  1.4189260e-02
  3.6931448e-03
 -6.7218170e-03
  1.0987554e-03
 -4.9249170e-04
  1.2182252e-02
  2.9817129e-02
  2.9846895e-03
 -2.2241492e-04
  4.1613057e-03
  5.9891306e-03
  1.0370866e-02
  1.2881935e-03
  5.7890691e-04
 -1.2105468e-03
  1.2222135e-02
  5.5947378e-03
 -1.5071940e-02
  3.3677095e-03
  1.0241377e-03
  6.7578006e-04
  3.6738645e-03
 -1.4328926e-03
  1.8714735e-03
  2.6202097e-03
 -1.1783813e-02
  3.7118243e-03
  1.3186499e-02
  2.9131069e-03
  1.1895768e-02
  5.6356955e-03
 -1.1809491e-02
  4.1772453e-03
 -1.3099514e-03
 -2.7032664e-02
 -5.1024570e-03
  4.4759381e-05
 -1.2247735e-02
  3.1978599e-04
  2.2584072e-03
  2.7909598e-03
  3.6321809e-03
 -6.0274168e-03
  9.5725562e-03
 -7.8748669e-03
 -1.9378664e-03
  8.5468646e-03
 -2.4281550e-02
  1.8245433e-02
  6.3347588e-03
  1.8211365e-02
  3.2602095e-03
 -4.5252983e-03
  7.0956908e-03
  4.1289767e-03
 -7.8294808e-03
  1.0788188e-03
  1.1264457e-03
  1.5430832e-03
 -6.0124635e-03
 -1.4584991e-02
  1.3292623e-02
  7.2002126e-04
 -1.2302035e-02
  1.7232392e-02
  3.7550454e-03
  1.3355033e-03
 -1.2196002e-02
 -1.2673854e-02
 -2.1308309e-03
 -2.1891454e-03
 -2.0081641e-03
 -6.3151564e-03
  9.7946823e-03
 -8.9322409e-04
  7.6880711e-03
 -1.0254987e-02
  7.2907511e-04
 -2.1921101e-03
  9.5112240e-03
  7.1989757e-04
 -1.3389018e-02
 -5.2367616e-03
 -6.5035615e-03
 -2.2431470e-05
  9.1297906e-03
 -5.2134977e-03
 -2.6074372e-02
  2.3477012e-03
  1.1406289e-02
  2.2188038e-02
  9.2088920e-04
 -3.4565739e-03
 -1.8333413e-02
  8.4059257e-03
  3.4954518e-03
 -1.0744357e-02
 -2.0777008e-02
  5.1625627e-03
 -2.2077348e-02
  1.0218858e-03
 -1.8658614e-02
 -6.6583895e-04
  1.8179871e-03
 -5.0538634e-03
  2.5121707e-03
  6.3780940e-04
  4.3216171e-03
 -1.8316665e-03
  1.7314287e-02
  7.2343793e-04
 -7.3040079e-04
 -2.5785936e-04
 -4.1798349e-03
  3.1229381e-03
 -1.4332612e-02
 -1.6382154e-03
  1.8509148e-03
 -5.3815902e-03
 -1.5784368e-03
 -6.4083077e-03
  8.1218518e-03
  6.9058919e-03
 -3.1208363e-03
 -1.0367764e-02
  6.1435136e-03
  5.6916722e-03
  3.4525357e-03
 -8.1604242e-02
  6.2498064e-03
 -1.4465084e-02
 -4.0912814e-03
 -8.0525038e-05
 -4.9722660e-03
 -1.3213237e-03
  5.4089846e-03
  2.2202758e-02
 -4.2095967e-03
 -7.0473552e-03
  8.2840919e-03
 -7.1835779e-03
  5.8008946e-04
  1.2711670e-03
 -4.1321293e-03
 -1.1057829e-02
  2.5142380e-03
  5.6074476e-03
 -4.2777210e-03
  2.8282423e-02
 -3.4520396e-03
  4.0411242e-04
  7.1642315e-03
 -5.6940265e-04
  2.1358680e-04
  1.3704619e-02
 -1.0466973e-02
  7.9187285e-03
  6.9530928e-05
 -7.7236788e-03
  1.4439682e-03
 -1.2728240e-02
 -7.7097525e-04
  2.9737577e-03
  2.0422870e-02
  7.8160111e-03
  5.9999204e-03
  2.8389886e-03
 -1.4281922e-02
 -6.6231224e-03
  1.0832007e-02
  2.2254417e-04
  1.9552208e-02
  7.1839406e-03
 -1.0349741e-02
  1.7930735e-02
 -1.1542690e-03
 -3.1405303e-03
  5.2470355e-03
  5.5308864e-03
  5.7028234e-03
 -1.8418882e-02
 -1.9692777e-01
 -3.2633286e-02
  1.1051567e-02
 -3.2178253e-01
  1.1421753e-03
 -4.9668467e-03
 -2.1659343e-02
 -2.5789279e-02
 -7.3454657e-04
  3.8300997e-03
  3.7303892e-01
  5.9705597e-01
  1.2548991e-01
  1.5608110e-02
 -3.4870689e-03
 -3.8014334e-03
  8.0392072e-03
 -5.8225203e-02
  2.7535805e-02
 -7.9695339e-04
 -3.0914904e-03
  1.5347403e-01
  9.8483495e-02
 -3.9493684e-03
  1.7979349e-01
  5.4472364e-03
 -5.9266001e-02
  2.9957650e-02
 -9.9473543e-02
 -1.6768048e-02
 -4.8939800e-03
  2.0715019e-01
  1.3296403e-02
  3.3133489e-01
 -1.0429408e-03
  2.8355350e-03
  2.3156935e-03
 -3.9507989e-03
  1.3700758e-01
 -6.5453239e-03
 -6.7237362e-02
  1.6549628e-02
 -2.0029813e-03
  1.1731568e-03
  4.0350864e-03
 -2.3604573e-03
  4.1339938e-03
  3.6847530e-04
 -6.3093756e-03
 -9.4498852e-03
  3.9783022e-03
 -2.6975593e-03
  1.4510022e-03
  5.0383746e-03
  4.6999352e-03
 -1.4712117e-03
  4.9388539e-03
 -4.0731276e-03
  9.1780843e-03
  6.8096176e-04
 -5.9892674e-04
 -2.9649695e-03
  4.7103106e-03
 -3.7497940e-04
 -1.3923681e-02
 -1.8276955e-03
 -7.6649599e-03
 -3.7952841e-03
 -1.4723346e-03
  6.9011543e-03
  3.0074334e-03
  6.8750395e-04
 -2.5377886e-03
 -1.0124809e-03
  1.8766841e-02
  5.6810272e-03
 -1.8001092e-03
 -9.1116130e-03
 -8.3209546e-03
 -2.5006798e-03
  9.1991085e-04
  7.5668553e-03
 -1.8044575e-03
 -9.5742643e-03
 -2.5832746e-03
  6.0173165e-04
  9.0126134e-03
  5.6248682e-04
 -1.7776689e-02
 -5.7994528e-03
  5.3637088e-03
 -4.5157771e-04
 -5.1197885e-03
  1.3856102e-03
  1.2201940e-02
 -2.6960680e-04
  5.5324198e-03
 -1.9949854e-03
 -5.5766166e-03
 -1.4072997e-02
 -8.7896053e-04
  1.0683724e-02
 -2.4131238e-03
  2.9472753e-03
  4.6023745e-03
  7.6038676e-04
  3.3066773e-03
 -6.7642359e-03
  2.0882706e-03
  4.8354119e-03
  3.2868874e-03
  7.3369346e-03
 -9.4947248e-04
 -1.8118382e-02
  3.6350163e-03
  1.7586299e-03
 -1.2322575e-03
  5.0040120e-03
 -1.2548657e-03
  5.0463043e-03
 -8.5533160e-04
 -1.5015737e-02
 -8.7143593e-03
 -1.1221138e-02
  1.2195487e-02
 -7.2409497e-03
  9.8391417e-03
  4.5748614e-03
  1.7415794e-03
  9.6306540e-03
 -2.2088608e-03
 -2.8428016e-03
  5.5444562e-03
  1.8119516e-03
  9.5449958e-04
 -1.5675281e-03
  3.9907186e-03
  5.4405251e-04
  1.5404472e-02
 -1.9233279e-02
  6.1175479e-03
  5.4509593e-03
  2.9071611e-03
 -7.4567534e-02
  2.0829356e-01
 -6.1054286e-03
  5.1422153e-02
  8.4134024e-03
 -3.2770492e-03
  7.2416798e-03
 -1.4859771e-02
  4.8832919e-02
  5.9250076e-03
 -1.0990432e-01
 -1.8739824e-01
 -4.6381010e-03
 -4.3650530e-03
 -2.4455849e-02
  5.0421078e-02
  8.1723230e-03
  5.0280741e-03
  1.3188457e-02
 -2.3615232e-03
 -5.7168752e-03
  1.8358745e-02
  5.8757081e-03
 -4.3478045e-03
 -1.6127635e-02
 -1.6727446e-02
 -1.3924199e-03
 -3.5705592e-02
 -3.0851014e-02
 -2.5987390e-05
 -1.2850253e-03
  2.1679362e-03
  9.3139084e-03
  1.5510210e-03
 -4.5997654e-03
 -2.3538605e-03
  5.5476874e-03
 -4.3077572e-04
  4.3048812e-03
 -7.8767519e-03
  1.4579756e-03
  8.8328488e-05
 -5.6585134e-04
  3.2507724e-03
 -1.4456612e-03
 -9.8300520e-03
 -9.5095430e-03
  8.4997265e-04
  9.4970521e-03
  5.0812010e-03
 -1.3962439e-02
 -1.0115515e-02
  3.5949426e-03
 -1.0390930e-03
  3.7307828e-03
  2.7235823e-03
  1.5196739e-02
 -1.4249881e-03
  7.4974159e-03
 -3.2027357e-04
  7.5473043e-04
  1.1833473e-04
  5.7468942e-04
  1.6056815e-02
  1.2156287e-02
 -2.0250831e-02
 -3.5299682e-03
  3.4326862e-03
  1.2187535e-02
 -1.2835165e-03
 -2.8822022e-03
  1.9665901e-03
 -9.4855987e-03
 -3.9593931e-03
 -7.8569126e-04
 -5.3682826e-03
  1.4104350e-02
 -9.5011445e-04
  3.9657149e-03
 -2.2390399e-03
 -3.6728287e-03
 -5.1753721e-03
  1.1973345e-02
 -3.7838183e-03
 -1.7286326e-03
 -5.1336149e-03
  2.2925732e-03
  9.1655273e-04
  9.5427502e-03
 -2.3694788e-03
 -1.9147892e-03
  5.0781742e-03
 -3.5582408e-03
  1.1962525e-03
  1.5026416e-03
 -8.6614424e-03
 -2.0333156e-02
 -1.9998609e-03
  1.9160050e-03
 -9.5044551e-03
  9.1638686e-03
 -2.1842776e-03
 -3.6762966e-04
 -2.0848311e-04
 -1.9360920e-04
 -1.7296618e-03
  4.8939809e-03
  1.9332970e-03
 -2.9968268e-03
  4.7698649e-04
 -2.4220764e-03
  1.2817418e-02
  6.7991512e-03
  6.1186673e-03
 -4.4210308e-04
 -5.8255848e-03
  3.2867089e-02
 -3.2284483e-03
  6.1947387e-03
  7.9443149e-04
  6.1585195e-03
  4.7829622e-04
  6.5290736e-04
  6.8207826e-03
 -2.0346577e-04
 -5.8272731e-04
  2.8390128e-02
 -3.7824907e-03
  8.3301344e-04
 -1.2080126e-03
  1.4506411e-03
  1.1868468e-02
 -3.3448562e-03
  1.7547799e-02
 -5.6713303e-05
  2.7336774e-03
  1.9376655e-03
 -1.1931063e-03
  5.5442876e-03
  5.6335470e-03
 -3.6775526e-03
 -2.3394583e-03
 -4.2677619e-03
 -1.3955202e-03
 -2.0472433e-03
 -9.1231382e-03
  3.1026190e-03
 -3.0830440e-03
  1.2875126e-03
  9.0472111e-03
  3.3625783e-03
 -7.1050916e-03
  7.7422429e-03
  1.2510382e-03
  8.3530452e-03
  1.2975483e-03
 -1.0088729e-03
 -1.1374451e-03
 -2.9905576e-03
  5.9663923e-04
 -6.7820074e-04
  4.5120486e-04
 -8.5118529e-04
 -1.5341257e-03
 -2.3419349e-04
 -6.5613813e-03
 -3.7667120e-03
 -5.7080518e-03
 -9.4523290e-03
  1.0084036e-02
 -6.0742237e-03
  4.5064003e-03
  1.2226767e-02
  2.4784168e-03
 -9.8530967e-03
  5.3921941e-04
  5.6321430e-03
 -5.5033494e-02
  3.6864919e-03
  4.4787121e-03
  1.6450381e-03
 -9.1394316e-03
 -1.0266529e-03
 -2.0663436e-03
 -4.9982541e-03
  3.4976612e-05
  7.9543274e-03
  1.6531510e-03
  3.6049450e-03
  7.2958134e-03
  5.6850864e-03
 -1.5711843e-03
 -2.1607906e-03
  1.6791690e-03
 -3.0531422e-03
  1.1845881e-03
 -9.0659391e-03
  5.7653873e-04
  3.0031144e-03
 -4.3911088e-02
  5.5414853e-03
  6.3459086e-03
  3.5056125e-04
 -1.3416309e-03
 -5.6958274e-04
 -3.6358722e-03
  6.5567612e-04
 -2.4733838e-02
  4.2185015e-03
  1.4096728e-02
  2.3809994e-02
 -4.6353838e-03
 -1.3619922e-03
  1.5632538e-02
 -2.2761142e-03
  1.2409450e-02
 -4.7335485e-03
 -1.5861392e-03
  2.1511936e-03
 -9.1513116e-03
  1.0146477e-02
  1.7406787e-01
 -4.7604940e-03
  3.0468071e-03
 -5.6796139e-03
 -1.8849622e-03
 -1.0304240e-02
  8.4787747e-03
 -5.4821192e-04
  3.9523151e-03
  1.6481732e-03
  6.5138238e-03
 -8.1906526e-04
 -9.6165398e-03
 -4.3457951e-03
 -1.4988497e-03
 -7.6978220e-05
 -4.2724120e-03
  7.9321780e-04
  1.0048011e-02
  5.4726191e-03
  8.3879456e-03
  2.9979704e-04
 -5.0639320e-04
  2.0886408e-03
 -5.6974106e-03
  1.6472400e-03
 -4.0590432e-03
 -9.9939583e-03
  2.2385430e-03
  7.0353947e-03
  4.7262508e-04
 -4.1076434e-03
 -1.8148822e-03
 -3.5941435e-03
 -2.0706261e-02
 -4.1450914e-03
  1.7754808e-02
 -7.7168667e-03
  1.2125653e-02
 -6.8330849e-03
 -5.9708459e-03
 -6.6574733e-03
  6.1056907e-03
  1.8105995e-03
 -1.2393449e-02
 -9.0863276e-03
 -5.4557156e-03
 -5.9460527e-03
 -1.3538832e-02
 -1.3924497e-03
  1.3302126e-02
  9.6964501e-03
  2.3001125e-02
 -4.8998743e-03
 -3.4085896e-03
 -5.2186716e-03
 -2.0387284e-02
 -1.2113503e-03
  1.2446187e-03
  2.0273828e-03
  5.6920117e-03
 -2.8858217e-03
  6.7480211e-03
  8.4796464e-03
  1.0025579e-02
 -1.8657617e-03
  4.5095482e-03
 -1.1703287e-02
  7.7156170e-04
  8.9262106e-04
  9.6220191e-04
 -5.5987504e-03
 -1.2988141e-02
 -8.1778606e-03
 -1.7477707e-03
  2.5869368e-03
  3.8209956e-04
 -1.8559447e-03
 -1.8273742e-03
  3.0003092e-03
 -7.7435318e-03
  1.9702464e-03
  1.3382061e-03
 -9.9436520e-04
  3.3730606e-03
 -2.2748755e-03
 -1.1513614e-03
  3.9284816e-03
  4.9139734e-04
 -1.1338799e-02
  2.8530132e-02
 -2.6372820e-03
  1.0143849e-02
  7.8792460e-03
 -5.7108472e-03
 -4.0911799e-03
  1.0586388e-02
 -1.1047865e-02
  1.0348987e-03
  1.4530971e-03
  4.2061666e-03
 -8.1685018e-03
  2.9381728e-03
 -2.6531608e-03
  8.0453213e-03
 -1.4392353e-03
  2.7702993e-03
 -3.5728284e-03
  8.6108958e-03
  5.9308838e-03
  2.9315650e-03
 -4.1706101e-03
 -6.1569810e-03
  2.7817111e-03
  1.1780941e-02
 -1.4639968e-03
 -1.1178488e-02
  2.1920342e-03
  8.1072599e-03
 -1.2775467e-02
  3.0175645e-03
 -1.4628088e-01
 -1.6176334e-03
 -2.5483307e-01
 -4.9046335e-01
  5.6364546e-03
  1.6929100e-01
 -8.4033722e-01
  2.6913784e-03
  2.3419166e-03
 -2.4982558e-01
 -5.1030982e-02
  2.8738934e-01
  1.5329907e-02
  2.3883620e-01
  3.7264030e-02
 -7.8015351e-03
  4.8918307e-01
 -8.2456231e-02
  2.4181537e-01
  6.7370292e-03
 -1.8390678e-01
 -3.0536357e-02
  4.4454639e-03
 -2.5926620e-01
  1.9178155e-01
  1.1540583e+00
  1.3876284e-02
  5.3748035e-01
  1.2789439e-02
  8.6978795e-03
  7.5458311e-02
 -6.3442409e-01
  1.2263880e+00
 -1.2165219e-02
 -6.4943125e-03
  7.3813503e-03
  4.7842073e-04
 -1.7969631e-02
  4.5195268e-03
  7.5635477e-04
  8.1966389e-03
  5.0310055e-03
  1.0090505e-03
 -8.7724356e-03
  6.1916087e-02
  3.6820581e-03
  7.5978078e-02
  5.8205095e-03
 -2.1905754e-02
 -3.3204395e-02
  6.2882626e-01
 -1.1028511e-03
  1.8842340e-02
  4.5081112e-01
 -4.0330555e-02
  7.4900830e-01
  8.2584908e-03
 -4.4944933e-01
 -1.7774878e-02
  1.9286019e-04
  1.1689126e-01
  5.7547010e-02
  2.0005716e-01
 -3.1201409e-03
  2.4735890e-02
  7.5003058e-02
  3.3620463e-03
  2.7458823e-01
  2.9569236e-03
  1.3838887e-01
 -1.4752513e-02
 -2.2441182e-01
 -8.3743501e-03
 -6.6115246e-03
 -1.1217647e-02
 -1.1784624e-01
 -8.4064662e-02
  3.0919759e-02
 -4.5086738e-02
  4.4527897e-03
  5.3504077e-03
  1.7782560e-02
 -6.9415714e-03
  7.2870739e-02
  1.2950407e-03
  2.0812437e-02
 -8.2995009e-04
 -1.0536169e-02
  8.0558460e-04
  5.4941648e-03
  1.7337605e-02
  5.8400068e-03
 -4.4031390e-03
 -3.1028467e-03
  1.0781326e-02
  2.3047212e-03
  2.2324896e-03
 -5.1711802e-03
  1.4904382e-04
  9.4319088e-03
  5.2226102e-04
 -4.7682347e-03
  4.9538072e-03
  8.3167851e-03
 -6.6490010e-03
 -7.5479932e-03
  1.1988353e-02
 -1.0837419e-02
 -6.6913180e-03
  4.1353125e-03
 -6.7846058e-03
  1.2534806e-02
  1.2508435e-04
  7.4504124e-04
 -3.7248924e-03
  2.1035563e-02
 -4.6144817e-03
  5.0215884e-03
 -7.4049202e-04
  1.9669108e-02
 -1.0528365e-02
 -1.0878606e-02
 -9.7777159e-04
 -1.2790785e-02
  1.4134259e-02
  2.2576009e-04
 -1.8325774e-03
 -5.5655208e-03
 -9.1455067e-03
 -6.6406158e-04
 -1.5583521e-02
 -6.4839912e-03
  3.3549711e-04
  5.1174960e-03
 -4.2601051e-03
  2.0663016e-03
 -1.4936835e-02
 -2.0763770e-02
 -5.1189153e-03
 -8.2375169e-05
 -1.1485034e-03
 -9.3465149e-03
 -1.1836365e-03
 -3.7483375e-03
  6.1341133e-03
 -4.1151908e-03
  7.2301989e-03
  8.6561153e-03
 -1.4009719e-03
  7.6666749e-03
  5.8143274e-03
 -1.0248756e-02
  2.1412179e-03
  2.9587313e-03
 -3.6666091e-03
  8.6595323e-03
  4.6294541e-04
 -4.7832294e-03
 -2.0895782e-03
  2.5197247e-03
  6.9449665e-03
 -4.8624314e-03
 -1.4999020e-04
 -7.7520451e-04
  1.0455300e-02
 -5.8842648e-04
  4.8884340e-03
  2.5990792e-03
 -5.7094293e-03
 -2.2524986e-03
 -1.4786499e-02
 -1.2698854e-04
 -1.1672750e-02
 -5.8653923e-03
 -2.3914215e-03
  1.6325228e-03
 -1.1965135e-03
 -4.8728019e-05
 -1.4732257e-03
  2.0710155e-03
 -9.9290768e-03
 -2.1977983e-03
 -4.5334673e-03
 -4.0255273e-03
 -9.2302188e-03
 -8.3810762e-03
 -3.9985543e-03
  1.3887523e-02
  5.4230164e-03
 -1.3957053e-03
  1.6030512e-03
 -1.6491669e-03
  9.6881558e-04
 -1.9854976e-06
 -1.2635000e-03
  6.6579957e-03
  2.0982057e-03
 -9.8941037e-03
  7.6497686e-03
 -2.6480108e-03
 -5.1559382e-03
  2.7103419e-03
  9.1176014e-03
 -1.0061258e-03
 -3.1555064e-03
  1.2817640e-03
  8.1833458e-04
  9.1067795e-03
  2.3060357e-02
 -9.9406363e-03
  1.8330504e-03
 -1.5267810e-02
 -3.1052670e-03
  2.7656055e-03
 -5.1169880e-03
  1.8465153e-03
  2.5795361e-03
 -3.8941631e-03
 -6.3215955e-03
  7.4488651e-03
 -1.4653791e-03
 -1.9170912e-02
 -9.5230872e-03
  8.7059388e-04
  5.4027149e-03
 -3.0104122e-03
  3.2940921e-03
 -1.0808862e-02
  8.6197432e-04
 -2.7650201e-03
  4.8582200e-03
 -5.7866611e-03
 -6.9224788e-03
 -9.5540186e-04
  1.4318044e-02
 -1.3054508e-02
 -1.3320100e-02
 -2.0132549e-02
 -1.5026018e-03
  7.6190755e-03
  1.4644747e-02
 -3.0955772e-03
 -1.2755960e-03
 -6.0881265e-03
  1.1119558e-02
  2.0945785e-04
 -5.4989505e-04
 -1.5888961e-02
 -4.4044694e-03
 -1.3993892e-03
  1.6326985e-03
 -1.0811287e-03
  7.0546856e-03
 -8.1688847e-04
  4.1820006e-03
  5.5094872e-04
 -1.5263094e-02
 -8.9490775e-04
 -8.9788798e-04
 -1.9722844e-03
  3.9134786e-04
 -1.1284254e-02
 -1.8978397e-03
 -3.6643518e-04
  2.3046133e-01
  7.1677165e-03
  5.7613910e-03
 -4.3671089e-04
  1.3397802e-03
  4.2885048e-03
  1.2573472e-03
  6.0458638e-04
  4.9516681e-04
  3.9572339e-03
  1.8731108e-02
  1.5379013e-02
 -1.0006123e-03
  8.2084253e-02
 -4.9993764e-03
  5.1241694e-03
  2.2915304e-02
  2.5005301e-03
 -9.8667145e-03
  6.8910839e-03
 -3.8079296e-03
 -3.1752472e-03
  3.1391818e-03
 -2.3831127e-02
  5.1222481e-03
  7.9923039e-03
  7.3003164e-04
 -1.3822460e-03
  1.3801176e-02
 -9.9830562e-04
  1.5466552e-02
  1.0440310e-02
  3.2722580e-03
  6.3220626e-03
  2.2583001e-03
  9.9862553e-04
 -2.4488973e-03
 -1.0496881e-02
  5.7250838e-04
 -4.3619543e-04
  1.6121702e-02
 -1.3865289e-02
  5.0623780e-03
 -1.8777836e-03
  1.5598900e-02
  3.6139973e-03
 -1.5716137e-03
 -9.3394052e-04
  2.5033220e-03
  1.9965628e-03
  4.6048439e-03
 -5.5454243e-03
 -4.4795107e-03
 -9.0910355e-03
 -7.7294274e-03
  1.8586128e-03
 -1.1720249e-02
 -4.0808031e-03
 -2.9896941e-02
 -5.0126802e-04
  5.3417170e-03
 -1.1504647e-02
  2.0179105e-01
  1.4091662e-02
 -3.9258860e-02
 -3.1006096e-03
  7.0776953e-03
  1.9897942e-03
 -4.4799156e-02
  1.4428122e-02
  4.4257040e-03
 -1.2323332e-02
 -3.1691815e-03
  8.9735845e-03
  8.0656493e-03
  2.4944197e-02
 -8.2309013e-03
  1.9990800e-02
 -2.4053988e-03
 -1.1087317e-03
  8.6994106e-03
  3.7171082e-03
  2.1448785e-02
 -2.0495210e-02
 -5.2420497e-03
 -8.3113258e-04
 -5.1130512e-04
 -3.3826820e-04
  7.0671984e-03
 -3.6957208e-03
 -8.9132888e-03
 -5.4492140e-03
  4.4056391e-03
  1.4949118e-02
  3.2569502e-02
 -1.5580299e-03
  6.4966558e-03
 -2.5251443e-03
 -9.7678117e-03
 -9.4907656e-03
 -8.5215429e-03
  9.1355114e-04
  2.7841472e-03
 -3.0373069e-03
 -3.8342732e-03
  4.1069398e-03
 -1.5265984e-03
 -5.9808400e-03
  1.3308264e-03
  9.5061143e-04
 -7.7068158e-03
 -2.4201260e-03
 -2.2427095e-03
  5.9166136e-03
 -3.3777023e-03
 -3.8619111e-03
 -5.0316919e-03
 -2.7989352e-04
  1.7981308e-03
  1.3076519e-03
 -1.3157433e-02
 -7.7016358e-03
 -6.3963328e-03
 -7.0884475e-03
 -6.3810740e-03
  2.5992859e-03
 -1.1037501e-02
  6.5300697e-03
 -1.1455177e-04
  1.1226146e-02
  1.3052115e-02
 -8.1058638e-03
 -9.4378367e-03
  4.4469838e-03
 -9.7865623e-04
 -1.1506641e-03
 -7.6951087e-03
 -4.6357065e-02
  2.3269415e-02
 -1.9486913e-03
 -9.9189673e-04
  2.2869844e-02
  1.3113764e-02
 -1.7786414e-03
 -1.4058023e-02
  3.5976174e-03
  3.0252950e-03
 -5.1289676e-03
  1.0621164e-03
 -4.3519046e-03
 -1.6984158e-03
  1.3136930e-02
 -3.0519988e-03
  3.2382302e-02
 -1.3567802e-03
 -3.9454599e-04
  3.0460441e-03
 -4.5293937e-03
 -1.9101640e-02
 -1.6237918e-02
 -2.1360425e-02
 -1.0916482e-02
 -2.4501139e-03
 -1.7623255e-02
 -2.8456168e-03
  3.6055839e-03
 -1.6790617e-03
 -4.1048401e-03
  6.7209685e-03
 -2.1738289e-03
 -7.6531279e-03
 -1.3221771e-03
  2.2424249e-02
  1.9636961e-02
 -4.1880519e-03
 -5.5054594e-03
 -8.8612176e-03
  3.9555472e-03
 -2.0044264e-01
 -1.5127947e-02
  5.8778217e-03
  1.9578496e-02
  8.9670345e-03
 -2.3415454e-03
 -5.4486836e-03
  1.2906251e-03
  7.9152146e-03
 -7.1175792e-04
  6.9222285e-04
 -2.7705261e-02
 -3.6767190e-03
 -6.5859416e-03
 -8.7160245e-03
 -4.9045231e-02
 -2.1564482e-04
 -7.1606156e-03
  1.5809938e-03
  3.6869973e-03
 -6.2123319e-04
 -1.1400089e-03
  5.4917871e-03
 -3.5674624e-02
 -7.6090409e-03
 -4.9736635e-03
 -1.4184840e-03
  3.8930220e-03
 -3.5362970e-02
  7.6449728e-03
 -1.1291362e-03
  6.5567670e-03
 -3.0288118e-04
  1.5550513e-03
 -1.2758323e-04
  2.5645276e-03
 -8.6931121e-03
 -9.9599268e-03
  5.7373699e-03
  2.4830669e-03
  1.4232744e-02
  6.8111765e-01
  8.0237591e-01
 -1.1448544e-02
  1.8457017e+00
  2.8393213e-06
  2.0743348e-01
  3.7120467e-01
  1.5083747e+00
 -1.2043698e-03
 -4.7330824e-03
 -2.4295621e-01
 -3.5455507e-01
 -3.5810445e-02
  2.3303150e-04
  1.0916790e-01
 -9.4316332e-03
  1.2803471e-03
  1.9349064e-01
  4.0133840e-01
  7.4887253e-02
  3.8916513e-04
  7.6932961e-04
 -2.0196316e-01
 -3.0437398e-03
 -5.2780521e-01
  6.5250292e-02
 -5.8008933e-01
 -2.7709848e-03
  4.9191678e-01
 -2.8687203e-03
 -2.3325623e-03
 -1.6234694e-01
  6.8505727e-02
 -6.5713924e-01
  8.2993193e-04
 -2.7218557e-04
  1.8138910e-02
 -1.8678273e-03
 -3.1465358e-01
  2.5923547e-01
  1.3074218e-01
 -5.0477227e-03
 -9.1341056e-02
 -2.8313210e-03
 -3.6848176e-02
 -5.1361062e-03
 -5.8496045e-04
  2.3767992e-03
 -8.6945770e-03
  1.8957414e-02
  7.6694977e-03
  4.5840992e-03
  4.8202131e-04
 -1.9637109e-03
  1.0052103e-02
  3.5325661e-03
 -1.9961905e-03
  3.9277234e-04
  6.1792331e-03
  3.5384393e-03
  3.3692401e-04
  1.5279613e-03
 -4.5273025e-03
 -1.8783726e-02
  9.2491591e-03
  2.8959450e-03
  1.8598849e-03
  2.0953597e-04
  1.9410476e-02
  4.6960167e-03
 -9.0952814e-03
 -1.2555634e-04
  4.3721823e-03
  3.3248324e-04
 -8.4927324e-03
  5.7174037e-03
 -1.3265541e-02
 -1.6725961e-03
  3.4315812e-03
 -1.1340250e-03
  1.4385447e-02
  1.5783546e-03
 -3.4761240e-04
 -1.3183270e-03
 -8.8311415e-03
 -1.6272077e-02
 -3.2255959e-04
  3.8046555e-03
  1.0159833e-02
 -4.9344925e-03
 -6.2718582e-03
  3.0301837e-02
  4.0366559e-04
  9.6334633e-04
  2.3054958e-03
  4.5402860e-03
 -5.8322968e-03
 -1.6585243e-03
 -5.5129151e-03
  2.5164237e-04
 -1.6390106e-03
 -6.3873339e-03
  7.6631089e-03
  1.0136904e-02
 -2.6564153e-03
  2.9029016e-04
  3.0081510e-03
 -1.2153935e-03
 -2.5661960e-03
  3.8389701e-03
  5.6158206e-03
  8.6562736e-03
  3.1439282e-03
  3.2226930e-03
  1.3238937e-03
 -5.3794228e-04
 -2.8269771e-03
  4.9214317e-03
 -8.9286838e-04
  2.7223541e-03
 -7.2588935e-03
  6.1345054e-05
  6.1133439e-03
  6.1891219e-03
 -9.5266504e-03
 -7.1526185e-04
 -7.8149252e-03
  7.1197869e-03
  3.3871273e-03
  4.3125186e-04
 -5.2127964e-03
 -8.7136840e-03
 -7.1380474e-02
  1.0072276e-03
 -9.2705749e-03
 -9.1892825e-03
 -8.1788665e-03
  2.6625399e-03
 -1.6267381e-03
 -1.5222025e-04
 -7.0789265e-03
  3.5897976e-01
  1.3792950e-01
  4.2997818e-02
  2.0745303e-03
 -5.7348696e-04
  5.4521306e-04
 -5.0326968e-03
 -1.0115014e-03
 -1.3788866e-03
  6.6262364e-05
 -1.2674468e-02
 -4.0642405e-03
  1.3137286e-02
  5.5925245e-03
 -3.4510146e-03
  4.7360644e-02
  9.5882965e-03
  9.9062780e-03
  3.0796598e-03
 -1.0725544e-03
  1.0117950e-02
  1.4396355e-02
  9.5014293e-03
  1.4716124e-02
  5.2493962e-04
  4.0950640e-03
  1.6595591e+00
  7.3754948e-01
  2.4219796e-03
 -4.1620522e-03
  1.5175699e-02
  1.4486918e-05
  1.7977181e-03
  7.2606099e-03
 -2.6857381e-04
 -2.3763753e-03
 -2.7081696e-02
 -3.4240797e-01
 -4.6405974e-03
 -7.0878714e-03
  1.8023537e-02
  9.2313148e-04
  6.3136727e-01
  5.3032916e-03
 -1.0153496e-01
 -2.4701576e-03
  1.7983012e-02
  4.1579949e-03
  5.4868846e-04
 -7.2985771e-03
 -4.7457060e-01
 -6.7308426e-01
 -7.1477896e-01
  8.3698817e-03
  5.0991205e-03
  1.1692686e-03
  3.6110776e-03
  2.0096299e-01
 -6.3252781e-04
 -2.5873741e-03
  2.7714908e-01
  4.4545936e-03
  2.3228433e-03
 -2.2815270e-03
 -1.9737077e-03
 -7.0701987e-01
  8.7861409e-03
 -7.5689345e-03
  4.8400366e-01
  6.0103275e-03
 -2.1569231e-03
 -4.9958234e-03
 -7.8109711e-02
  4.9756404e-02
  2.0924855e-03
  4.7359942e-03
  1.1017030e+00
 -8.0567986e-01
  4.4976189e-04
 -4.0337457e-03
 -3.1944332e-03
 -1.7504690e-02
  1.7148763e-02
 -7.4767591e-03
  2.9743200e-02
 -2.3048605e-01
 -1.6446243e-01
  2.7080355e+00
  1.0942332e-03
 -8.7840855e-03
  3.2478988e-03
 -1.0287587e-03
  3.4876725e-01
 -1.1659916e-02
  6.0557975e-03
  5.4228217e-03
  4.6330936e-02
  2.2069155e-03
  9.6793324e-02
  5.5287365e-02
 -5.0729094e-03
  2.5621175e-03
 -4.7782296e-03
 -1.1145832e-03
 -5.4180552e-03
 -3.9715695e-01
 -9.9367825e-03
 -3.5528424e-03
 -2.3712679e-03
  8.4474403e-03
  1.7096042e-03
 -5.0036968e-03
  3.4468804e-02
  8.9658434e-03
  5.6496435e-03
  2.5418764e-03
  2.5583368e-03
 -1.9075947e-04
  9.2184858e-04
 -2.4000267e-02
 -3.1873935e-03
  3.6271783e-03
 -1.9075194e-02
  1.4016324e-02
  9.2263995e-03
 -1.0701550e-02
 -1.8258664e-03
 -4.4537181e-05
  3.1257470e-03
  2.1266798e-03
 -4.2325091e-03
 -9.1852620e-03
 -2.4281794e-04
 -1.0371029e-03
 -1.3817523e-03
  2.4696635e-03
  5.0882441e-03
  3.0820223e-03
  2.7611551e-03
 -4.4102785e-03
  1.7554136e-02
  3.1640539e-03
 -2.7044741e-02
 -1.4673817e-03
  4.1113654e-03
 -8.8014221e-04
 -6.3019772e-03
  3.0947593e-03
 -4.5518465e-03
 -7.6802629e-03
  4.1257214e-02
 -3.8931172e-03
 -7.4746963e-03
  2.7003672e-03
 -8.2783541e-03
 -3.5064740e-03
 -9.5476285e-03
  3.2764182e-03
 -3.0823092e-03
  5.2210055e-03
  6.2968982e-03
 -1.8275355e-03
  2.3020501e-03
  5.0440072e-03
 -7.0345709e-03
  1.7062100e-03
  5.1541533e-03
 -1.0864750e-03
 -1.8724591e-02
 -6.4379713e-03
  5.7177064e-03
 -8.5704244e-04
 -6.9196881e-03
  4.0937690e-03
  1.6214295e-03
 -1.9447410e-02
 -2.3457934e-03
  9.4828068e-04
  2.2371358e-03
  3.9531011e-03
  1.0314886e-03
  4.2721462e-03
 -5.7986188e-03
 -5.0276460e-04
 -8.7223621e-03
 -2.7981298e-02
 -4.6533751e-03
  5.4737194e-03
 -7.7880085e-03
  7.7199709e-04
  2.0047869e-03
 -1.9015700e-03
 -1.5993033e-03
 -5.4702602e-02
 -6.9369599e-03
  2.0366829e-02
 -1.0206767e-03
 -7.6407716e-03
 -6.5645566e-03
  4.6107071e-03
  8.9960117e-03
  5.9442609e-03
  3.7450527e-04
  5.6072562e-03
 -8.0125118e-03
  1.9105682e-03
  1.9101521e-03
 -2.9817401e-02
  1.1538448e-02
 -1.7116733e-02
  1.6159542e-02
  1.9401452e-03
  5.8014439e-03
  5.4725510e-04
 -4.6434859e-03
 -7.5323635e-04
  3.3120725e-03
 -1.1589105e-02
 -5.9233168e-03
  3.4825609e-04
  3.3479999e-04
 -3.4156594e-02
 -9.7564822e-03
  2.2176392e-03
  5.5127498e-04
  2.1449167e-02
 -8.1446450e-03
  2.4830960e-03
 -6.8985922e-03
  1.1588339e-03
  8.3384914e-03
 -4.1470439e-03
 -1.7049238e-03
  2.6884379e-02
  1.7854810e-02
  1.3676533e-03
 -8.4240707e-03
  2.1075124e-03
 -1.7017199e-03
 -1.4274687e-03
 -1.0004959e-03
 -4.0267459e-03
  3.5516187e-03
  5.2769305e-03
 -9.9875527e-03
  3.7601353e-03
 -4.9408078e-03
  4.2937398e-03
 -3.1993506e-03
  1.3232122e-02
  1.3883863e-02
 -5.1319241e-03
  2.4597596e-03
  3.3580686e-04
 -1.3990732e-03
  1.0581401e-02
 -7.8207950e-06
 -1.2369390e-03
  2.4822508e-03
  6.5740971e-03
 -3.8750970e-04
 -1.6740257e-03
  2.0590147e-04
  1.2866015e-04
 -7.4773999e-03
 -5.8122614e-04
 -9.7708846e-04
 -7.5009153e-03
 -7.3266416e-03
  6.6445596e-03
  9.6805877e-04
  2.9588569e-02
 -4.8916400e-03
 -4.6745292e-03
 -2.3738805e-05
  1.5521104e-02
  1.0989347e-02
  7.8218468e-03
 -4.0042168e-03
 -1.4650663e-02
  9.5152147e-03
  1.2422074e-03
  6.2354882e-03
  5.4695746e-03
 -4.1174241e-03
 -1.8227169e-03
  1.2767311e-02
 -3.2980214e-03
  9.1786950e-04
  1.2014925e-02
 -5.0910690e-04
 -6.8938470e-04
 -3.8515923e-03
 -1.3728926e-02
 -5.5539985e-03
 -8.2792910e-03
 -5.0181540e-04
 -4.9172365e-03
 -7.7705871e-04
  7.3673762e-04
  3.2773579e-03
  2.0961950e-05
  6.0357479e-04
 -1.1727641e-02
 -7.0513324e-03
  2.5484073e-03
  1.8638107e-03
  4.5710900e-03
 -2.5416627e-03
  2.4939748e-03
 -3.7865117e-03
 -1.0793919e-02
 -1.3073289e-04
  1.5679267e-03
  9.9778315e-03
  1.0199594e-04
 -2.8697161e-03
 -3.9774906e-03
  1.0023706e-04
  1.4619500e-02
  9.8654917e-03
  2.8631238e-03
  6.4454251e-04
 -2.6809603e-03
 -8.3220878e-04
 -1.3591567e-02
  4.6595731e-03
 -1.1342404e-02
  2.0013419e-03
  1.7043995e-02
 -9.6022608e-03
 -6.3428716e-03
  3.4864983e-03
  7.2246755e-04
 -3.9695338e-03
  1.1967391e-05
  1.2704791e-02
  1.0591208e-02
  8.2985973e-03
  2.0255579e-03
 -2.8237517e-04
 -1.5310289e-03
  1.2515051e-02
 -1.5980058e-03
 -1.6686178e+00
 -1.2271628e-03
 -1.7093188e-03
 -1.3022856e-03
 -1.0350364e-03
 -5.7666269e-03
  3.5988589e-05
  4.2199185e-03
  4.6927170e-03
 -3.5146978e-03
 -4.1604415e-03
  4.2755255e-03
 -5.3508109e-03
 -1.5493939e-03
  2.6777089e-03
 -6.2746317e-03
 -7.7209575e-04
 -3.0020841e-03
 -5.3872536e-03
 -1.0394445e-03
 -3.8420374e-03
 -1.1122640e-02
  2.9470044e-04
 -6.7654211e-04
  5.5425595e-03
  1.9422603e-03
  9.7066797e-03
 -6.0053491e-03
  2.6876895e-02
  2.0669852e-03
  2.3603246e-03
 -3.5919237e-03
  1.8930836e-03
 -2.5498576e-03
 -1.0096940e-02
  7.1124290e-03
 -1.2692550e-02
  1.5889653e-03
  6.7959679e-04
 -1.1567607e-02
 -5.5590398e-03
  1.3645321e-02
  1.5647946e-02
  5.2327085e-03
  1.9373741e-02
 -2.3582669e-02
  1.3795645e-02
 -1.7554757e-04
 -2.0728480e-02
  4.7772978e-03
  4.1318517e-03
  4.9387403e-03
  7.6549803e-03
 -1.7024616e-03
  7.4302178e-04
  8.1811827e-03
  2.5653368e-01
  5.0900956e-03
  4.0900862e-01
  5.4777227e-02
 -1.3654575e-02
  1.2120875e-02
  3.0720982e-01
  1.9359557e-02
  4.8912369e-04
  2.7233517e-02
  1.7722943e-05
 -2.8248304e-01
 -1.5097950e-01
 -8.6072284e-01
 -1.3454816e-02
 -1.5783116e-01
 -1.3371464e-03
 -3.3490360e-02
 -3.4668905e-01
 -2.9624565e-04
  8.4974198e-04
  6.8233209e-03
 -1.2098943e-02
  1.0782880e-02
 -5.7935352e-03
 -9.6170425e-02
 -1.7946291e-03
 -1.7089498e-01
 -6.9853421e-03
  1.3978115e-03
 -1.9986954e-02
 -2.9423977e-03
 -5.1148780e-02
  1.3950389e-03
 -1.7908727e-01
 -2.5276975e-03
 -3.2991972e-02
 -2.1659553e-03
 -1.4246664e-03
  3.9642081e-03
 -4.4986210e-03
 -2.8247349e-03
  4.9024592e-03
 -1.0904931e-02
 -1.9924829e-03
  4.5748404e-03
  8.2821222e-03
  1.0574784e-02
  1.0316668e-03
 -2.3835921e-03
  3.6727436e-02
  1.8656636e-02
 -1.7950324e-02
  2.5914249e-03
  2.4922027e-03
 -1.4639617e-03
 -3.5763491e-02
  6.8828685e-04
 -6.8851863e-03
 -6.7698080e-03
 -1.2881435e-02
 -9.0888189e-04
 -1.0677668e-02
  2.9708331e-03
 -1.2190561e-02
  1.2200937e-03
 -3.4898375e-03
 -5.6962306e-03
 -6.0044732e-03
 -1.4209425e-02
 -7.7488919e-04
  7.7101472e-03
 -1.4588170e-03
 -4.4273073e-03
 -1.8619793e-02
  1.9022888e-02
  5.4536411e-03
  2.1894774e-03
 -4.8021111e-03
 -3.0270792e-03
  3.7528975e-03
 -2.5735938e-03
  5.7265972e-04
 -6.5209909e-04
  1.3850353e-02
  3.4054523e-04
 -5.1980535e-03
 -1.5173266e-03
 -2.7731871e-03
 -1.9611830e-03
  8.6933449e-03
  2.2500420e-03
  2.6514062e-03
  7.1773799e-03
 -1.6190004e-02
  1.1787199e-04
 -1.0747562e-02
 -3.0040101e-03
 -9.9461833e-03
 -3.7655892e-04
  2.6209953e-03
  8.2239043e-03
 -2.2895352e-03
 -4.2792005e-03
  6.2552509e-03
 -5.9149512e-03
 -2.6528386e-04
 -1.8537806e-02
  9.1359941e-03
 -5.8222394e-03
 -5.1093763e-03
  6.7920779e-04
 -4.4493601e-03
 -6.1597563e-03
 -2.0253370e-04
  1.0373242e-02
  1.0832642e-03
 -6.7409419e-04
  5.8945059e-03
  6.8278224e-03
 -6.5152422e-03
 -3.3972415e-03
  3.2943990e-02
  8.5918959e-03
  6.8446714e-03
  2.4725141e-02
 -1.0995676e-02
  5.8106746e-04
  1.0528867e-03
 -1.1436812e-02
 -8.1505869e-03
 -5.8233789e-03
  9.8429751e-03
 -1.3075125e-02
 -1.1767416e-02
  9.8335072e-03
  6.6899497e-04
  3.3021325e-03
  2.2630478e-04
 -8.0466196e-03
 -1.2504462e-02
  1.3265833e-02
  1.4982310e-02
 -2.8316812e-03
  1.3531270e-03
  2.6193880e-03
 -1.6095097e-03
  1.8487582e-02
 -1.3262773e-03
  3.4732823e-03
  1.9641535e-02
  1.2962357e-02
  9.3420874e-04
 -4.6777939e-03
  7.3270467e-03
 -8.2492419e-03
 -2.6185582e-03
 -1.2593259e-03
 -5.5418286e-04
  1.1019158e-03
 -1.9072158e-03
  1.7357377e-02
  3.8304217e-03
  7.1436306e-03
 -1.3029008e-03
 -2.1347858e-03
  2.0221311e-03
  2.1545724e-03
  5.6290454e-03
  3.2363425e-03
 -2.1498255e-03
 -8.6976141e-03
  3.3999011e-03
  8.0106659e-03
 -5.6859893e-03
 -6.8105030e-04
 -6.5046852e-04
  9.6545238e-03
 -8.3266087e-03
  1.2329749e-03
 -3.6082529e-03
 -6.6787894e-03
  1.1694117e-02
  4.7184755e-03
 -3.1144989e-03
 -5.5195335e-03
 -1.6707336e-04
 -4.5987205e-03
 -4.2015286e-03
  1.5751490e-02
  1.1080895e-02
 -2.4514063e-03
 -8.5081421e-03
  1.9236651e-03
 -1.0639088e-02
  1.9665428e-02
 -3.8672154e-04
  2.5397507e-02
 -1.3792763e-02
 -1.6943744e-03
 -6.3071918e-04
  1.9150965e-02
  1.9280250e-03
  9.6659632e-03
 -5.1538856e-04
  7.0076389e-03
  1.1173304e-04
 -5.0373091e-03
 -7.1017179e-03
 -5.0893012e-03
  3.5414319e-03
  4.6869349e-03
  1.2470871e-03
 -8.0607943e-03
  4.4162171e-03
 -3.1163965e-03
 -2.4056179e-03
  1.4584800e-02
  5.2286601e-03
 -6.4277691e-03
 -6.2540239e-03
  1.5620233e-03
 -1.1140173e-02
 -2.2739144e-03
 -4.2082532e-03
 -6.7279628e-03
 -1.0326542e-02
 -4.5346585e-03
 -2.7771670e-04
  1.8935737e-03
  9.8258480e-03
 -6.3080708e-03
  6.5152528e-04
  1.8017463e-02
  1.3359903e-03
 -9.9337036e-03
 -6.8236589e-03
  8.3694508e-04
 -3.7464034e-03
 -3.0272291e-03
 -7.9701860e-03
 -1.6748358e-02
  2.5068265e-03
 -8.2050441e-03
 -4.1235699e-03
 -2.0770766e-03
 -1.5496854e-03
 -1.0071180e-02
  3.9779274e-03
  1.6827632e-03
 -1.4006959e-02
  6.8681138e-03
  1.5230206e-02
  2.2257846e-02
 -1.2574526e-02
 -6.2784869e-03
  3.8598194e-03
  1.4558705e-03
  5.1672272e-03
 -4.4826772e-03
  8.5519068e-03
 -3.6029848e-03
  7.6974565e-03
  6.3431044e-03
  1.4012587e-03
 -8.0403569e-04
 -6.5578490e-02
 -2.0681989e-01
 -1.8279588e-01
 -7.4725654e-03
 -5.0630993e-01
 -6.1019089e-02
  1.2541402e-02
 -7.1441256e-02
  6.5952040e-02
  5.4841682e-02
  8.7764993e-02
  1.9236147e-01
  2.5601732e-02
  7.6872490e-02
  3.3724043e-03
 -2.6450478e-02
  1.2901238e-02
 -2.9333762e-03
 -1.1317777e-02
 -1.0188843e-01
  9.4416440e-03
 -1.4072132e-02
 -8.7279873e-03
  1.6610533e-01
  3.8788155e-02
  1.2970355e-01
 -4.2238021e-03
  1.1272375e-01
  1.1107497e-01
  1.6238708e-02
  8.0343932e-02
 -1.7556967e-02
 -6.7114411e-03
 -1.7860717e-03
  5.9986217e-03
 -1.9981479e-04
  9.7936103e-03
  8.3498349e-03
 -2.5828101e-03
 -8.3373012e-03
 -1.9292907e-03
  4.6932651e-03
  7.4034915e-03
  1.5316337e-02
 -8.7633422e-03
 -4.6454375e-03
 -1.3340416e-03
 -1.0355955e-02
 -2.0610567e-02
  1.2110341e-03
  3.2351343e-03
  4.0287403e-03
 -8.1190271e-03
  9.7951610e-03
 -3.6920886e-03
 -2.8067883e-04
 -8.4709628e-03
 -1.9028986e-02
 -2.8505279e-03
 -1.0235011e-02
  2.1333490e-03
 -6.5081250e-03
  9.3186963e-03
 -2.3712562e-03
  1.4346417e-03
  1.6448420e-02
  3.0913034e-02
 -1.0914403e-02
  8.7093497e-03
 -1.2010535e-03
 -8.0789864e-04
  9.3693407e-03
 -1.5616458e-03
 -5.1444946e-03
  2.0999368e-04
  7.2034583e-03
  4.1463017e-03
  1.2026087e-02
 -2.0195823e-04
  5.2991724e-03
  2.4715984e-02
  4.0261843e-03
  3.6775002e-03
  4.2671940e-04
  4.4552875e-03
  1.3620442e-03
  6.7174376e-04
  6.4916746e-03
 -3.4344292e-03
 -5.2158786e-03
 -7.8353044e-03
 -2.7932948e-03
  1.6875632e-02
 -5.6468337e-03
  7.4182892e-05
  7.4139652e-03
  1.0926652e-03
 -3.1229539e-03
 -4.0636687e-03
  3.5570017e-01
 -3.8014504e-03
  8.2059233e-03
  2.0368430e-03
 -6.4489670e-04
 -9.7103771e-03
  1.5861487e-02
 -4.2934793e-01
  2.7354374e-03
 -2.3708679e-03
 -9.9910609e-03
  1.1962352e-02
  5.4574711e-03
 -5.6545359e-05
 -2.0404503e-02
  3.2917378e-03
 -2.0126255e-02
 -2.5316151e-03
  1.0232642e-02
  2.0966236e-03
 -2.2164513e-03
  3.0312312e-03
 -6.8757148e-03
 -4.7298814e-03
  3.5660355e-03
 -4.1635754e-03
  3.0769422e-03
  6.5079690e-03
  1.1222548e-02
 -6.7902089e-04
  3.3542567e-03
  1.0636069e-03
  7.7514077e-04
  1.5587498e-01
  3.1724848e-02
  4.3811422e-02
  2.1634090e-03
  2.0553498e-01
  5.2811098e-03
  8.4289052e-03
  5.6777657e-03
 -2.8420588e-02
 -7.7844612e-02
 -9.3147151e-02
 -1.8823683e-01
 -8.5953198e-04
 -6.9637699e-03
 -1.0329502e-02
  1.6622169e-02
 -7.7532187e-02
 -7.8461308e-04
 -2.5690608e-02
  1.2530102e-02
 -1.5442637e-02
  1.0164438e-02
 -2.1667618e-03
 -5.6186952e-02
  1.1734479e-03
 -1.4164982e-02
 -2.9632343e-02
 -1.3428788e-02
 -1.2332771e-02
 -7.4696923e-03
  4.9002923e-04
 -3.8249032e-03
 -5.3460542e-03
 -8.0546160e-04
 -1.2190110e-02
 -2.1060971e-03
  2.2138685e-03
 -1.5455749e-03
 -9.9416282e-03
 -4.1098795e-03
 -4.2398348e-03
 -2.8915566e-03
 -6.1934995e-03
  1.6993962e-03
 -7.5296294e-03
 -2.7250649e-02
 -3.4416781e-03
  3.5873230e-04
 -7.3640227e-02
 -6.0641346e-04
 -2.1620132e-03
 -8.5389493e-03
  1.7273370e-02
  5.2198246e-02
  1.6348880e-02
  4.8537219e-01
 -9.9092228e-03
  7.0851455e-03
 -1.0178550e-03
 -3.3738479e-04
  3.0514080e-02
 -5.9430548e-03
 -1.5421068e-02
 -8.9967856e-03
  1.5748497e-02
 -2.8272070e-06
  8.4485114e-03
  4.5004059e-02
 -1.0496388e-03
  2.6239695e-02
  9.0297144e-03
  4.9420841e-02
  6.9787600e-03
  1.3639367e-02
 -3.7781720e-04
 -3.0061039e-03
  4.0701511e-03
 -6.9450098e-03
 -3.2127248e-03
 -7.7148485e-03
 -1.5860572e-02
  9.3333870e-03
  1.8593498e-03
 -6.4503849e-03
  1.4610861e-03
  4.5845224e-04
 -6.4926399e-03
 -5.6154090e-03
 -1.2882101e-02
 -1.0655169e-02
 -4.2948306e-02
 -3.6763074e-03
  2.8614663e-03
 -7.0571699e-03
  8.9551304e-03
 -1.3663402e-03
  6.4249756e-03
 -1.8008832e-03
 -5.5258656e-03
 -1.9910878e-02
  1.5011047e-03
 -2.8177889e-03
 -3.8495839e-03
  1.0235086e-02
  3.2969697e-03
  1.2187649e-03
  2.8842387e-03
 -6.8193940e-03
  1.2467564e-03
 -2.2651840e-03
 -9.0335580e-03
  6.2339618e-03
  4.3303203e-03
 -1.1716169e-02
  1.5166708e-03
  7.9376828e-03
  6.7866324e-03
  7.8480300e-03
  2.7849830e-03
  2.5432131e-03
  1.8841599e-03
 -8.1866747e-03
  1.2527227e-02
 -1.6124696e-04
  1.1100007e-02
  5.4407595e-03
 -2.6456378e-03
 -8.4806997e-03
  2.2960540e-03
 -2.1686482e-03
 -4.5447317e-03
 -3.0913674e-03
 -2.8187362e-03
  5.3603775e-03
 -3.4892450e-03
  5.5684689e-03
  1.2282039e-03
 -2.2345930e-02
 -1.0355773e-02
 -2.3694099e-03
  1.1260955e-02
  1.1495547e-03
  3.4210514e-03
  9.8815626e-03
 -8.3905943e-03
 -5.2785769e-04
  6.5716971e-03
 -9.1692869e-04
  1.9568058e-03
  3.1176314e-03
 -7.1388725e-03
 -7.6807346e-03
  8.3782170e-03
  1.2938611e-02
 -1.0606793e-02
  8.6027803e-03
 -8.4578898e-03
 -1.1681322e-02
  2.5724603e-02
 -1.5661124e-03
 -4.4379267e-03
  6.7914031e-03
  1.5074991e-03
  2.6015735e-03
  3.8164179e-04
  5.5522490e-03
 -1.7891591e-03
  7.6302309e-03
  7.7998643e-03
  7.2890138e-03
 -8.2769347e-03
 -1.0195711e-02
  7.4144825e-04
  3.2472917e-01
  5.5810511e-03
  1.8427902e-03
  1.1091099e+00
  3.4908047e-01
  5.3729746e-02
  1.9228713e-03
  1.9264215e-01
  1.6630058e-01
  2.9637939e-01
  2.9051682e-01
 -2.6819897e-01
  4.5473555e-01
 -7.7839118e-01
  2.3173191e-01
 -2.1274176e-03
 -4.9795035e-02
 -4.2666224e-04
  1.2908931e-02
 -3.7824297e-01
 -4.2207401e-02
 -4.9948868e-01
  1.5096685e-01
 -1.7942885e-01
  2.9573667e-01
  1.1457884e-02
 -6.7688897e-02
 -4.8045693e-03
  1.7347150e-01
 -1.7481491e-02
 -3.2938689e-01
 -2.7136126e-01
 -5.7250466e-03
 -2.6925090e-01
 -1.1340382e-02
 -4.7077924e-01
 -5.3516505e-03
 -1.1811821e-01
 -3.5446899e-03
 -4.8630722e-03
 -4.5842826e-02
  2.6541529e-03
  2.2948008e-02
  1.8063607e-04
  1.0521185e-02
 -2.0603519e-03
  1.3865417e-02
  1.8216543e-02
 -3.1841849e-04
 -2.9702077e-03
 -5.4101500e-04
 -3.3325306e-03
  3.9311931e-03
  8.8905441e-03
  3.9047296e-03
 -4.0978012e-03
  5.8342353e-04
 -7.3833525e-04
 -3.5110099e-04
 -9.3237543e-03
  3.9985728e-02
  2.0795667e-03
  1.8878428e-02
  4.2217495e-03
  6.4112708e-02
 -3.7069831e-03
  5.5809418e-04
 -3.8493905e-02
  4.9182423e-03
  1.9077320e-03
 -1.3900236e-03
  1.5251758e-03
 -2.3718312e-02
 -4.1581471e-03
  1.5080384e-03
 -3.2391462e-02
 -9.4871997e-04
 -1.6526621e-02
  4.9069114e-03
 -6.9843670e-03
  1.0861335e-02
  7.8357598e-03
  1.2178484e-02
  1.2544603e-02
 -8.6037153e-03
 -1.8172763e-05
 -6.1752455e-04
 -1.3330252e-03
  3.1090644e-01
 -2.0721023e+00
  8.6643463e-03
 -8.1873685e-02
  4.0894076e-01
  1.5010505e+00
 -4.9473956e-04
 -3.9195153e-01
  3.6032237e-03
 -1.8567939e-01
  2.0092329e-01
 -3.5162222e-01
  1.9399765e-01
 -2.9945567e-01
  1.5418866e+00
  1.9363141e-02
  9.3750000e-02
 -1.2419571e-02
  6.9365539e-02
  3.4888964e-02
 -1.8172143e-01
 -7.6155528e-02
  1.4882340e-01
 -4.5174822e-01
  4.6325512e-02
  2.7980095e-02
  3.6267873e-02
  2.4880852e-01
  2.9782045e-01
  1.0805085e-02
 -1.1061449e-03
 -6.7263439e-02
  1.6594911e-02
 -9.2162108e-03
  1.1026119e-01
  3.1982216e-01
  1.3220850e-03
 -3.7688965e-03
  2.8681760e-03
 -1.0031755e-03
 -3.0653298e-01
 -2.5807894e-03
  1.9475749e-02
  6.8384036e-04
  1.5803633e-03
 -1.2809191e-02
  4.5209071e-03
  3.7236665e-03
  2.6228328e-03
 -3.8139292e-04
  1.6827340e-03
  4.2454721e-03
  4.0811668e-03
  8.0950623e-03
 -9.4322156e-04
  7.4570803e-03
 -8.2412660e-03
  2.9612619e-03
  1.0434862e-02
 -1.6143780e-02
 -6.4630643e-03
 -1.4244077e-02
  6.2308513e-04
 -4.3739835e-03
 -7.0958748e-03
  1.0723815e-02
  4.2152563e-03
  8.0801948e-04
  1.1281854e-02
 -4.0033231e-03
 -1.4665317e-03
  1.0208253e-02
 -3.0641460e-03
 -8.5304730e-04
 -1.8531952e-02
  1.5316063e-03
 -5.8429181e-03
 -1.3588842e-02
 -3.7118550e-02
 -3.0662862e-03
 -5.8754266e-04
  5.8338898e-03
  5.6503853e-04
 -1.0253672e-03
  2.0312896e-02
 -2.6219841e-03
 -9.4063592e-04
  8.5142888e-03
 -2.8919920e-03
 -8.1934361e-03
 -3.0158395e-03
  7.4520269e-03
 -5.9360918e-03
  8.8733397e-03
 -1.4367214e-05
 -1.5624169e-03
  1.9013105e-02
  2.2501091e-02
 -1.3418368e-02
  5.1968900e-04
 -5.4240314e-04
  6.6664635e-04
  5.9019113e-03
 -1.6693464e-03
  4.4183987e-03
 -8.5789611e-04
 -5.1013706e-04
 -9.4476650e-03
 -5.7296990e-03
 -2.3822226e-03
 -1.8634474e-04
 -9.4062565e-03
 -5.3426032e-03
  3.6486622e-04
 -1.9214261e-02
 -6.6761957e-03
  2.7882971e-03
  1.7004902e-02
  1.1250765e-02
  5.6949537e-03
  3.0138211e-03
  2.1059075e-03
  2.5348437e-03
  1.3910251e-02
  9.0813451e-03
  2.3627812e-02
  4.8783151e-03
 -1.9394791e-02
 -4.3740541e-02
  1.0217389e-02
 -1.1562742e-03
 -3.4133911e-02
 -9.9519563e-01
  9.4241875e-01
 -1.3763414e-01
  2.5073287e-01
 -8.6271977e-03
 -1.9248126e-01
 -8.5447878e-03
  1.0406294e+00
  9.1362558e-02
  5.6661209e-03
  7.0289880e-02
 -3.6775635e-03
 -1.7973745e-01
 -6.4469941e-02
 -6.1029125e-02
 -4.3043825e-03
 -2.2201568e-01
 -1.3514900e-02
  6.1965286e-04
 -5.0024909e-01
 -1.8581432e-01
 -5.2052015e-01
  1.2439478e-01
 -2.4077399e-02
  8.8345576e-03
 -4.5728525e-03
 -4.2990395e-01
 -7.9736948e-02
 -5.2321124e-01
 -7.1132265e-04
 -2.1174987e-01
 -2.4708405e-03
 -4.4903257e-03
 -2.2497785e-01
 -2.5783956e-02
 -1.5569790e-01
  1.2405079e-02
 -8.3699271e-02
  1.4091722e-03
  4.1964017e-03
 -2.9900789e-03
  9.1862539e-03
 -1.1595886e-01
 -1.5164036e-02
 -3.4611351e-03
  4.4374242e-03
  8.9554852e-03
  8.5096210e-03
  1.0159217e-03
 -8.9720609e-03
 -5.0444854e-03
  9.7594626e-04
  4.6051838e-03
 -6.6090543e-05
  5.4271226e-03
 -6.0741888e-05
 -2.4300672e-03
  8.5014496e-03
  1.2082360e-02
 -5.2176435e-03
 -2.9810932e-03
 -2.4548735e-04
 -8.4863580e-04
 -9.9135488e-03
 -2.5660156e-03
 -1.6876564e-03
  1.6224073e-02
  1.7048689e-02
 -2.9413504e-04
 -1.5793528e-03
  2.8255649e-03
 -3.9307121e-03
  8.3363475e-03
 -1.9191664e-02
  3.8044769e-03
  9.1216201e-03
 -1.0359610e-03
 -6.0086586e-03
 -1.8892661e-02
  1.1407742e-03
 -4.3181702e-03
  2.5535678e-03
  2.9161298e-03
  1.0873500e-02
 -9.1522891e-04
 -2.1583145e-03
  1.4116188e-02
  9.4029298e-03
  8.8385091e-04
 -3.5611294e-02
  7.2810454e-03
 -2.5777809e-02
 -1.4306186e-01
 -1.3974322e-01
  6.6427966e-03
 -3.5080087e-01
 -6.2662609e-02
  4.3470045e-03
 -8.3893135e-02
  2.2458343e-01
  2.4847454e-01
  1.0990952e-01
 -2.4580589e-01
  4.8136101e-03
  8.6224169e-02
 -9.7589084e-04
 -4.0083486e-03
  9.2959978e-02
 -6.1969017e-03
  2.8554643e-02
 -5.9598405e-02
  2.7679589e-02
 -1.8397937e-02
 -1.0849616e-02
  1.6543196e-01
  2.1269249e-02
  1.1047848e-01
  2.6796511e-03
  1.8501551e-01
  4.0286288e-02
 -3.1227034e-03
  7.0916533e-02
 -1.5245988e-02
  9.7144045e-02
  1.1518558e-04
  2.9485047e-02
 -1.6128255e-02
 -1.7209291e-02
  2.8147995e-03
 -1.5580170e-03
 -4.4660652e-03
 -8.2657533e-03
 -4.5264093e-03
  1.7513998e-02
  1.2217320e-02
  7.6359138e-03
  1.9564214e-01
  2.0414057e-01
  1.5685604e-03
  3.6767834e-01
  7.3343746e-02
 -2.2380112e-02
  6.0916316e-02
 -6.0663175e-02
 -1.3906303e-01
 -1.2160863e-01
 -2.5243631e-01
 -1.0268664e-04
 -5.3548995e-02
 -5.7044048e-03
  8.1282351e-03
 -1.6468528e-01
 -1.5067784e-01
 -3.4502316e-02
  1.7365462e-03
 -2.4552760e-03
  2.3262719e-02
  7.3187967e-04
 -8.2038432e-02
 -7.5893916e-02
 -1.1261246e-01
 -8.9427680e-03
 -7.9418048e-02
 -8.0261096e-02
  2.4572043e-03
 -2.4293697e-02
  4.6080272e-03
 -1.3404827e-01
  4.2117602e-04
 -3.8416423e-02
  7.4771056e-03
  8.8046454e-03
 -2.6353771e-02
  1.3096284e-02
  5.0209486e-03
  9.7444635e-03
 -3.3269746e-03
 -2.7117500e-01
 -1.1786046e-02
  2.3409962e-03
 -1.8869099e-01
 -4.5318276e-01
  8.1047893e-04
 -4.2135465e-01
 -2.1128731e-02
  3.9286199e-03
 -7.0753872e-02
 -5.1270695e-03
  2.8738725e-01
  1.7295736e-01
 -1.8684562e-02
  1.1826833e-02
  1.5280692e-02
 -1.0423045e-02
 -2.3350097e-02
  5.6976955e-02
  1.0099043e-03
 -7.1959436e-02
 -1.7238548e-02
  6.4600147e-03
 -4.9846927e-03
  1.8114805e-02
  4.8443288e-02
  4.0194895e-02
  6.3120866e-01
  1.7733842e-02
  7.7933744e-02
  2.6415786e-02
  1.2811703e-02
  4.3139621e-03
 -8.0068400e-03
 -2.0684920e-02
 -1.2825007e-02
  3.3555157e-02
 -9.0395398e-03
  2.0515243e-02
  2.8114216e-02
 -5.6718858e-03
 -1.7884528e-02
 -9.2598796e-03
 -1.6542898e-03
 -4.9499506e-03
 -1.7199082e-03
  1.1818766e-03
  1.9846562e-02
  1.6608592e-02
 -1.7933114e-02
 -1.8426027e-03
 -9.5733330e-03
  3.1472102e-02
  5.7335091e-03
  1.6631987e-03
 -1.4378573e-03
 -8.3115365e-04
 -3.3254530e-02
  5.5153237e-04
  1.4600047e-03
 -3.2503961e-03
 -1.9042901e-03
  4.9537495e-03
  1.0124322e-02
 -9.8348712e-04
  8.2793618e-03
  5.7970855e-04
 -3.7358918e-03
  4.0776520e-03
  1.4643578e-05
 -1.3515030e-02
 -1.3347058e-02
 -5.4282220e-03
  1.6597610e-03
 -7.7934880e-03
 -1.5067179e-03
  3.3044702e-04
 -1.2158208e-02
  1.4398433e-03
 -5.4276120e-03
 -5.2991728e-03
 -1.0513198e-03
  8.9991856e-03
 -1.7700674e-02
  3.9132438e-03
  1.9068418e-02
 -5.4141140e-04
  7.4356009e-04
  3.7111519e-03
 -4.2519257e-03
  1.1488469e-02
  1.0605449e-02
  5.8632945e-03
  8.8172182e-03
  9.0642981e-02
  1.0044105e-02
  7.9984876e-04
 -2.5368326e-03
 -3.9280578e-03
 -3.8854065e-03
  3.9675888e-03
 -3.6935601e-01
  8.9939097e-03
 -6.9854213e-03
  1.1494717e-02
 -4.0520718e-03
 -3.5488096e-04
  5.8603347e-03
 -8.1020845e-03
  1.0614520e-03
  7.4996618e-03
  9.1878586e-03
  7.5607826e-03
 -1.5034029e-02
 -7.8905458e-03
 -3.4529918e-03
 -1.2473234e-04
 -7.2890092e-03
  6.5154764e-03
 -2.0534208e-03
  1.7509667e-02
  3.9510142e-02
  2.0634092e-03
  2.6106642e-04
  1.5579559e-03
 -1.5685905e-04
  1.3916993e-03
 -5.2739047e-03
 -1.3862257e-03
 -3.2069187e-03
 -7.8980974e-04
 -8.6966218e-05
 -4.9743219e-03
  3.9251316e-02
 -4.7232588e-03
  4.3569342e-03
 -2.1803776e-02
 -2.2705139e-03
 -3.0190463e-03
  2.3756612e-02
 -1.4667654e-02
  1.7431164e-02
 -1.1746109e-02
  1.0248936e-03
  8.3406763e-03
 -5.6890636e-03
  1.1218079e-02
 -8.7960548e-04
 -1.3922439e-03
 -7.0693847e-03
 -3.5545209e-03
 -6.0812160e-03
 -5.0410200e-03
 -2.6220225e-03
  2.2761369e-04
  3.9841845e-03
 -4.9208053e-03
  3.0909763e-03
  1.0568434e-02
  4.8575918e-03
  1.6945852e-03
  2.5785489e-03
  2.1895238e-03
  3.1136494e-04
  1.6988464e-02
 -2.0594217e-03
  2.2650110e-03
  2.6556707e-03
 -4.3588937e-03
 -3.7751739e-05
 -1.3271441e-03
  6.9792308e-03
 -1.4915648e-02
  3.5266764e-03
 -9.9915173e-03
 -2.0387713e-02
 -6.8685762e-03
 -8.8328756e-03
  4.3623969e-03
 -6.8301884e-03
  3.5918140e-04
 -1.3292052e-02
  1.3675790e-03
  3.9393650e-04
 -1.8536851e-02
  4.4320356e-03
 -7.0585695e-04
 -1.6668160e-04
 -1.6468450e-02
 -6.8284706e-03
  2.9641087e-03
 -1.3363747e-02
  4.9413159e-03
 -1.7411767e-03
  1.1871585e-02
  7.4345829e-05
 -1.2729739e-02
  1.6051339e-03
 -6.4611621e-03
  1.2273053e-03
  2.2355113e-03
  1.3949397e-03
 -4.8860083e-03
 -6.1682044e-03
 -4.6384335e-04
 -1.1623382e-02
  1.9570666e-03
 -2.1810718e-02
  1.0422516e-02
 -4.8385905e-03
  1.0360650e-02
 -2.7451726e-02
 -6.4073578e-03
 -6.2919869e-03
 -1.3627063e-03
 -1.8124792e-04
 -3.1236985e-03
 -1.4542975e-03
  3.8334145e-03
 -7.2463695e-03
  2.1749672e-03
  2.8346715e-02
  3.4042976e-03
 -2.5255270e-03
 -2.4337431e-03
 -6.8336632e-03
  7.3973462e-04
  1.5851485e-02
 -3.1060604e-03
 -5.5710631e-03
 -1.1340383e-02
  4.2083003e-03
  5.6419633e-03
  3.4044188e-02
  3.0198027e-04
  2.8354477e-03
  2.2184004e-03
 -2.0065613e-03
  5.6768730e-03
  9.5939863e-04
 -4.5599197e-03
 -8.4434636e-03
 -2.7334262e-02
  3.1648763e-03
  2.9238790e-02
 -5.9143654e-03
 -1.0537353e-02
  2.0933211e-02
 -7.1565923e-03
  1.4165449e-02
 -3.8392055e-03
  1.3004206e-02
 -1.6203324e-03
 -4.5359908e-03
 -3.6874597e-04
 -8.8545140e-03
 -8.5207488e-04
  5.0960365e-03
  2.7105464e-03
  1.0572073e-02
  4.1648559e-03
 -7.3046150e-04
 -1.1426316e-02
 -8.0028003e-01
  2.7862542e+00
 -2.4529207e-03
 -7.3490024e-01
 -2.4803330e-01
  2.6142508e-01
  5.8444650e-03
  2.6990096e-03
 -4.3375015e-02
  4.8598476e-02
 -1.4471763e-01
  3.1533068e-01
  2.5873423e-01
  1.6018550e-01
 -3.6098391e-02
 -4.8438759e-04
  2.2369768e-02
 -4.9338909e-04
  7.4529359e-03
 -2.4538334e-03
 -1.6663903e-01
 -4.4862378e-01
  2.8692652e-02
  4.9215686e-01
 -1.9395466e-01
 -2.0055184e-02
  6.0127815e-03
 -2.2872430e-01
 -5.2426261e-01
 -6.8002851e-03
  1.5543479e-01
  1.3360362e-01
  7.0528989e-04
  1.0992427e-01
 -5.3646993e-02
 -1.1857104e-01
 -8.0200058e-04
  4.1383941e-02
 -1.3337505e-02
  1.1260593e-02
  2.8575757e-01
  5.9868731e-03
 -2.9046586e-01
  2.1456361e-03
 -1.4336561e-02
  4.0518489e-02
  9.2340391e-03
  1.1875711e-01
  1.2555219e-01
  7.2324850e-02
  1.7774898e-03
  2.8739744e-01
  4.9330272e-02
  4.1349032e-03
  1.1751241e-02
  1.0892646e-02
 -7.3268209e-03
 -2.9193509e-02
 -2.1893546e-01
 -1.7548414e-04
 -1.4802708e-02
 -2.6398342e-02
  3.1376143e-03
 -3.2589350e-02
  6.5354737e-03
  1.2861564e-02
 -1.6483957e-02
 -2.6768673e-02
  1.6547505e-02
  7.0347916e-03
 -8.6608909e-02
 -2.3713536e-03
 -2.0729011e-01
 -1.8089075e-02
 -3.8531795e-02
  2.5045665e-03
  1.2810090e-02
 -2.2444583e-02
 -7.0167957e-03
 -2.7227033e-02
  1.6916180e-02
 -2.9784899e-02
  5.5446639e-03
 -4.9197138e-04
  1.9524536e-03
  3.0917989e-03
  9.9529617e-04
  2.5355543e-03
  6.4955959e-03
  4.5937102e-04
  1.0438744e-02
 -6.4905230e-03
 -1.3225905e-04
  3.1049217e-03
  2.8794219e-03
 -9.9562565e-03
  1.6270295e-01
  1.4314215e-02
  1.3756793e-03
  9.8663289e-03
  5.4568332e-03
  1.9170824e-02
  4.2081820e-03
  1.6018784e-02
